dense/kernel:0
(784, 128)
[[-0.02434272 -0.05018935 -0.01210579 ... -0.04554063  0.00906686
  -0.0498084 ]
 [ 0.00061208  0.06370313 -0.01726583 ...  0.07650042 -0.04497327
   0.0441928 ]
 [-0.04201249 -0.0475463   0.03514136 ... -0.04878285 -0.03654571
  -0.00636325]
 ...
 [-0.0013403   0.04727369  0.00953645 ... -0.0794908   0.02522585
   0.0095202 ]
 [-0.00537721 -0.01835928 -0.00823805 ... -0.05760398  0.08008864
   0.04762364]
 [ 0.01102775  0.07298373  0.03279582 ...  0.01263698 -0.05142002
  -0.05894583]]
dense/bias:0
(128,)
[ 1.36313796e-01  2.43835822e-02  3.94266769e-02 -3.81498411e-02
 -6.49346337e-02 -2.63808727e-01  1.58713967e-01  1.82363182e-01
 -8.44347849e-02 -1.74787775e-01 -6.73457384e-02  1.67201564e-01
  1.61329687e-01 -2.90901680e-02  1.89518798e-02  8.70405510e-02
  2.08622888e-01  1.75158545e-01  1.42534927e-01 -1.81779265e-01
 -1.70059234e-01  1.39515802e-01 -1.82913497e-01 -9.07206014e-02
  2.53978401e-01 -2.31328771e-01 -1.48217874e-02 -6.72963914e-03
 -6.19826540e-02  1.21729948e-01  1.38481706e-01 -7.03084320e-02
  2.04640970e-01  1.12981841e-01  3.69089493e-03  2.21408084e-01
  7.40134120e-02  1.20882345e-02  8.48360434e-02  1.84259504e-01
 -5.76889589e-02  1.87106147e-01 -1.62225813e-01 -5.78560643e-02
  8.60881060e-02 -6.37873486e-02 -4.12834026e-02  3.98966260e-02
  1.15249626e-01  2.91567929e-02  7.46183246e-02 -7.16669336e-02
 -6.23615943e-02  2.26979882e-01  1.47130340e-01 -1.79297104e-02
  1.39776580e-02  1.37045234e-01 -5.35119362e-02 -6.18363218e-03
 -1.64139256e-01 -1.12122456e-02  1.20662689e-01 -1.86342478e-01
 -2.29575532e-03  1.66693002e-01 -1.80639327e-01 -2.31303591e-02
  1.43482164e-01  2.21373379e-01  5.32608628e-02  7.03167766e-02
 -4.19816859e-02  1.16070785e-01  1.04687898e-03  2.71818303e-02
 -1.17690973e-01 -1.48551717e-01 -4.41977568e-02 -3.25152539e-02
  8.45634565e-03  2.49266773e-01 -8.54751654e-03  6.56025158e-03
  1.96034044e-01 -4.53837961e-02 -1.18617691e-01  8.33308175e-02
 -1.17873847e-01  2.05423236e-01 -2.61180457e-02 -6.65016025e-02
 -5.66952601e-02 -1.28500596e-01 -1.03750542e-01  5.59076592e-02
 -3.79659943e-02 -1.48685634e-01  1.32000968e-01  1.80594400e-02
 -1.10204369e-01 -1.56232417e-01  1.44300371e-01 -1.11196376e-01
  3.90217849e-03  2.03921571e-01 -1.66586563e-01  6.65193945e-02
 -5.86757815e-05  1.66818857e-01  1.25455946e-01  7.21270815e-02
  1.09578505e-01 -3.93776298e-02 -1.94159895e-02  1.87933236e-01
  1.46122113e-01  9.21065547e-03  8.00695568e-02  1.17462829e-01
  5.93423545e-02  4.56732623e-02 -6.88925460e-02 -8.62228051e-02
  1.82506457e-01  6.47274330e-02  3.99833843e-02 -1.66545901e-02]
dense_1/kernel:0
(128, 10)
[[ 0.02370151  0.00848896  0.16625592 ... -0.12600882 -0.26039252
   0.06858776]
 [-0.28670084 -0.48105276 -0.4872666  ... -0.63420486  0.07866136
  -0.33769155]
 [-0.21845081  0.31390986  0.2674194  ...  0.03582737  0.54299223
  -0.57915354]
 ...
 [-0.35661626  0.14172775  0.07434206 ...  0.6570372   0.163428
  -0.6026195 ]
 [-0.09376409 -0.37693846 -0.04896634 ...  0.1366884  -0.71525234
   0.21734   ]
 [ 0.11417624 -0.2174835  -0.2599762  ... -0.2703311  -0.21314918
  -0.51442355]]
dense_1/bias:0
(10,)
[-0.15701294 -0.2487737  -0.0235197  -0.07745007  0.13818045  0.05525513
 -0.03426747 -0.13855135  0.299504    0.03313585]
