baseline/conv2d/kernel:0
(5, 5, 3, 6)
[[[[-6.72344863e-02  7.54291937e-02  1.38917133e-01 -2.26400599e-01
     3.15575838e-01 -7.95163028e-03]
   [ 1.12852275e-01 -2.23875120e-01  2.15141684e-01  2.28520826e-01
     1.59621894e-01  4.96794768e-02]
   [-1.21670157e-01 -1.28967151e-01  2.02337392e-02  7.30698034e-02
     4.40404087e-01 -1.31353840e-01]]

  [[-8.57121646e-02  1.41193047e-01 -5.11841336e-03 -1.59397706e-01
     2.10569665e-01 -5.25583550e-02]
   [ 1.10344678e-01 -9.96818468e-02 -3.06709614e-02  1.15017436e-01
    -1.10936239e-01 -1.04889236e-01]
   [-9.87469703e-02 -1.19335406e-01 -9.94742364e-02 -7.68444538e-02
     1.33555427e-01 -1.41854838e-01]]

  [[ 2.45543364e-02  1.99997500e-01 -9.10721421e-02 -3.02656684e-02
    -9.38002840e-02  2.43666753e-01]
   [-4.05488396e-03 -1.08282492e-02 -2.30131745e-02  2.52370834e-01
    -3.15210044e-01 -9.11030248e-02]
   [ 7.12526515e-02  1.42719418e-01 -2.55060494e-01  2.26284921e-01
    -1.69232488e-01 -6.55734837e-02]]

  [[ 1.75783575e-01 -1.12932459e-01 -7.90545270e-02 -1.02581479e-01
    -2.35285722e-02  1.95756704e-01]
   [ 9.29764807e-02 -8.71716291e-02 -1.29080459e-01 -1.55771405e-01
    -2.96779394e-01 -1.96570441e-01]
   [-5.39480150e-02  1.31862834e-01 -1.32705390e-01 -1.58536017e-01
    -3.58804375e-01 -1.36691093e-01]]

  [[-1.27778783e-01 -2.84623518e-03  9.32211801e-02  1.10537350e-01
    -1.76425412e-01 -4.67617176e-02]
   [ 3.38407643e-02 -1.04510769e-01 -1.26944244e-01  4.64676395e-02
    -1.68831006e-01  1.35015666e-01]
   [-1.03114173e-01  9.36717689e-02 -6.96695149e-02  4.84566353e-02
    -2.46407136e-01  1.01361489e-02]]]


 [[[-3.32209766e-01 -3.78147028e-02 -2.34295670e-02 -2.46536478e-01
    -9.96540934e-02  2.60578036e-01]
   [-5.25600985e-02 -2.41820827e-01 -1.84261426e-02  6.26440123e-02
    -2.37044603e-01  2.51320869e-01]
   [-3.29847559e-02 -1.08392939e-01  2.09889904e-01 -4.75408621e-02
     8.17285776e-02  3.55197750e-02]]

  [[ 1.48200139e-01  5.40524498e-02  1.87232658e-01 -3.02619860e-02
     2.23357640e-02 -1.40601069e-01]
   [ 4.68803905e-02  7.86527842e-02  1.60433635e-01  9.76579115e-02
     6.97332919e-02 -1.68314278e-01]
   [ 2.03520223e-01 -1.17035851e-01  1.28109768e-01  3.71370837e-02
     1.31924003e-01  1.12045063e-02]]

  [[-5.50279766e-02  2.98594922e-01  1.73746452e-01 -3.16383362e-01
     2.32489660e-01  2.09862992e-01]
   [ 1.05295606e-01  1.67537346e-01 -2.37856656e-01  1.18922748e-01
     1.17465369e-01 -3.13662812e-02]
   [-9.96674001e-02  2.41679817e-01 -7.76388794e-02  1.97979823e-01
    -3.13748010e-02 -1.58239126e-01]]

  [[ 6.33014515e-02 -6.75319210e-02  9.07149762e-02 -3.00808370e-01
    -8.22719783e-02 -9.32500511e-02]
   [ 3.36045623e-02 -8.23959410e-02 -1.08528830e-01  2.23552845e-02
     2.21765012e-01 -3.25579166e-01]
   [ 1.19004272e-01  3.95229980e-02 -1.48818102e-02  3.70304883e-02
    -4.29256633e-02 -2.81665325e-01]]

  [[ 5.52329198e-02 -1.37633517e-01 -9.15228501e-02 -7.21479803e-02
    -4.80776429e-02  1.02949068e-02]
   [-1.29109025e-01  1.16994530e-02 -1.73676819e-01 -5.36693726e-04
    -1.21050686e-01  2.90664900e-02]
   [-9.36716944e-02  9.93304551e-02 -3.05031538e-01  1.37465686e-01
    -1.86419219e-01  1.08912112e-02]]]


 [[[-2.11111367e-01 -2.90230829e-02  2.48728786e-02 -2.16169298e-01
    -1.83548927e-01 -1.18711695e-01]
   [ 3.64513882e-02 -3.06581587e-01  4.13265871e-03 -1.52678922e-01
    -1.42040268e-01 -2.06582639e-02]
   [-1.31514490e-01 -3.83110553e-01  1.41925842e-01  1.31181017e-01
     3.54481414e-02 -5.99427558e-02]]

  [[ 2.71680802e-01  2.33570084e-01  7.34708682e-02 -1.84269890e-01
    -2.62489170e-01  1.70506060e-01]
   [ 1.20478161e-01 -1.17687754e-01 -7.22981393e-02  3.78252454e-02
    -2.64991313e-01  1.46720454e-01]
   [ 1.05480522e-01 -1.56699494e-01  3.03178877e-01  1.06312938e-01
     1.33109512e-02  1.84680149e-01]]

  [[ 6.78954646e-02  2.54153490e-01 -2.15861630e-02 -2.32927620e-01
    -1.17474712e-01  2.34677657e-01]
   [ 1.51132584e-01  2.26574987e-01 -1.45655304e-01 -8.73210207e-02
    -1.58699870e-01  3.09827864e-01]
   [-1.90705210e-01  2.49127865e-01  2.98375487e-01  1.93301961e-01
     1.47818714e-01  1.32008970e-01]]

  [[ 7.81563967e-02 -2.33379498e-01  1.24965183e-01 -2.30079889e-01
     2.68706292e-01  3.63326430e-01]
   [ 1.50912330e-01  1.54385701e-01 -1.91468179e-01 -1.82235211e-01
     1.41892388e-01  1.06232665e-01]
   [ 1.49477944e-01  9.95717570e-02 -9.78654474e-02  1.02794141e-01
    -2.24212967e-02  1.61637038e-01]]

  [[-1.60586298e-01 -1.30800605e-01  1.83531700e-03  1.11115061e-01
     2.41991624e-01  1.76172763e-01]
   [-3.37520540e-01 -8.56371671e-02 -1.98694304e-01 -5.77918068e-02
     3.16495657e-01 -1.00684144e-01]
   [ 1.27350502e-02 -4.66447882e-02 -2.67412275e-01 -1.26347020e-01
     3.23315151e-02  1.46204799e-01]]]


 [[[ 1.47478059e-01 -1.65644139e-01  1.22763023e-01  1.04018249e-01
     6.87228218e-02 -7.59154186e-03]
   [ 1.69825703e-01 -2.92169422e-01 -1.99230239e-01 -1.70949032e-04
    -7.55840540e-02  1.10411018e-01]
   [ 1.00107297e-01 -1.10851571e-01  1.87900916e-01 -2.57276166e-02
    -2.37954985e-02  7.80612156e-02]]

  [[ 1.17900200e-01  1.62829116e-01  1.19186789e-01 -1.63097337e-01
    -1.61379650e-01 -2.33978644e-01]
   [ 3.80583018e-01 -4.70557734e-02  5.18767536e-03  2.16299206e-01
    -7.91119188e-02 -7.24782702e-03]
   [ 1.27844438e-01  3.52274254e-02  4.41604942e-01  6.94695339e-02
    -9.31157731e-03  2.86258515e-02]]

  [[-1.53535336e-01  3.11392397e-01 -5.35858199e-02 -1.72913402e-01
    -2.07201801e-02 -2.69147344e-02]
   [-9.31536034e-02  1.32242600e-02  1.05366446e-02 -3.34324054e-02
     6.74950331e-02  1.05558308e-02]
   [-3.20638753e-02  1.53960228e-01  5.23009837e-01  2.31995508e-01
    -6.82577416e-02 -2.02004313e-02]]

  [[-2.14999333e-01  9.36195552e-02  2.01531220e-02  1.79767877e-01
     1.25158891e-01  3.39740254e-02]
   [-3.29439908e-01 -3.99431735e-02 -4.62816097e-02  9.42864269e-02
     1.12944715e-01 -1.38755441e-01]
   [-2.26335660e-01  1.16749806e-02  4.15407628e-01 -7.02099651e-02
    -1.36278924e-02  2.09160894e-01]]

  [[ 7.22687542e-02 -2.32956573e-01 -1.55169055e-01  3.14555466e-01
     4.67563160e-02 -7.78663829e-02]
   [-8.60060155e-02  1.37165755e-01 -1.43119007e-01 -2.82811355e-02
     6.12834096e-02 -6.28500991e-03]
   [ 2.40039174e-02 -5.55755710e-03  5.77568933e-02  1.94149334e-02
    -6.09501190e-02  2.71372460e-02]]]


 [[[ 1.81775272e-01 -1.69764131e-01 -7.26083294e-04  1.74241364e-01
    -1.51358739e-01 -2.07591206e-01]
   [ 2.25045890e-01 -1.31493405e-01 -1.72541469e-01  2.40526441e-02
    -1.35653779e-01 -8.46845582e-02]
   [ 3.95706631e-02 -1.32061929e-01  6.18820339e-02 -1.68111563e-01
    -1.83954146e-02  4.13127951e-02]]

  [[-1.88377216e-01  1.56957626e-01  3.06930747e-02  1.54556841e-01
    -6.02127127e-02 -1.50799423e-01]
   [-1.87149033e-01 -1.71080515e-01 -1.35458291e-01  2.21910737e-02
     1.21957637e-01 -1.03228763e-01]
   [-2.21378520e-01 -1.53618269e-02  2.81707376e-01 -1.87298313e-01
     8.06164145e-02  8.09936747e-02]]

  [[-7.75404647e-02 -6.84627742e-02  5.44216484e-02  1.28128141e-01
     5.37803620e-02 -2.01445892e-01]
   [-2.17104256e-01  1.65671900e-01 -9.79461372e-02 -1.75548822e-01
     1.30258471e-01 -2.13100120e-01]
   [-1.96723610e-01  2.02164158e-01  2.16544926e-01  5.19750752e-02
     2.25276113e-01  3.43593173e-02]]

  [[-9.99175459e-02  5.98039180e-02 -4.23495471e-02  2.64998805e-02
    -1.43972576e-01 -9.87048820e-02]
   [-4.81539480e-02  5.68221286e-02  5.12446091e-02  5.08221984e-02
     2.85770260e-02 -1.76956683e-01]
   [ 8.08358863e-02 -2.76266895e-02  3.99816304e-01 -9.56004262e-02
    -8.65845084e-02 -1.17939509e-01]]

  [[ 2.15570420e-01 -2.23679081e-01  2.84455102e-02  3.46234232e-01
    -3.69361304e-02 -1.31090716e-01]
   [ 1.66434377e-01  8.39659423e-02 -9.93291214e-02 -1.11604191e-01
     1.08428545e-01 -1.39427572e-01]
   [ 2.44176194e-01  5.06632552e-02  1.74470037e-01 -2.17005402e-01
     3.14160483e-04  1.72862589e-01]]]]
baseline/conv2d/bias:0
(6,)
[ 0.07203192  0.02194216 -0.13590854  0.01070058 -0.06165698 -0.05672172]
baseline/batch_normalization/gamma:0
(6,)
[0.343426   0.5853483  0.29200435 0.32432917 0.38586906 0.4295375 ]
baseline/batch_normalization/beta:0
(6,)
[-0.06249946  0.0422875  -0.01683381 -0.00190454 -0.07057188 -0.03195772]
baseline/dense/kernel:0
(1536, 128)
[[-2.12968849e-02  1.87823046e-02  1.76853701e-01  2.93913353e-02
   9.31447893e-02 -6.57425495e-03  1.78719386e-01  1.90481067e-01
  -2.15352420e-02 -1.50974570e-02  2.38798317e-02  7.38932490e-02
   7.66350329e-02 -1.40660778e-01  1.33153737e-01 -2.15301979e-02
  -3.15298699e-02  2.35983692e-02 -2.72665842e-04  6.69903755e-02
   2.21494779e-01  9.00206342e-03  1.16524138e-01  1.21241650e-02
  -1.45648597e-02  4.47071195e-02  8.12250674e-02 -3.20430286e-02
   1.26762940e-02  1.14447977e-02  1.49139926e-01  7.86292180e-02
   8.74322504e-02  1.68011293e-01  1.05915315e-01 -2.30694249e-01
   1.22950718e-01 -8.94059986e-03  1.97449550e-01  5.67987338e-02
   1.36472151e-01 -1.31203011e-01  8.53440762e-02 -8.44349042e-02
   2.01624304e-01  8.54066983e-02  1.24327103e-02  6.77414089e-02
   4.95180711e-02 -5.27761579e-02 -2.51663029e-02  1.65899862e-02
  -6.38606492e-04  2.98532378e-02  1.26941025e-01  8.73211548e-02
   6.48670644e-02  1.98582754e-01 -1.24854587e-01  2.22225506e-02
   1.27876386e-01  3.17376293e-02  4.99574840e-02  2.56681412e-01
   8.96851271e-02  5.27013764e-02 -3.40031832e-02  2.68766358e-02
   7.65370876e-02 -1.28055573e-01  2.23691657e-01  6.39295280e-02
   1.85018361e-01  1.15657926e-01  4.75314334e-02  7.53315017e-02
   1.39405966e-01  1.08796107e-02  1.20109767e-01 -1.18145429e-01
   1.33367494e-01  3.66245694e-02 -3.15563716e-02  1.49511293e-01
   1.60996422e-01 -1.80921964e-02  6.72494993e-02  1.55284375e-01
   7.27838650e-02  1.30214214e-01  3.09618890e-01  2.65160054e-02
   3.17454874e-03  1.95838753e-02  2.40450781e-02  2.21296519e-01
  -6.49276972e-02  1.05217984e-02 -8.41082260e-02  5.82120754e-02
   1.11056186e-01  1.03085756e-01 -2.89123524e-02  3.01547609e-02
  -4.99659553e-02  2.73624044e-02 -2.49346066e-03  4.62686494e-02
   7.89783970e-02  7.71669522e-02 -1.03607520e-01 -1.16242208e-01
   3.45199998e-03  1.26401871e-01 -8.46813023e-02  7.61700124e-02
   5.07719629e-02  3.89936827e-02 -1.53496666e-02  5.16289435e-02
   5.66970073e-02  1.55444458e-01 -6.18306994e-02 -8.15398693e-02
  -2.82014757e-02  1.45761758e-01  5.31444326e-02  1.04199924e-01]
 [-4.83520590e-02  3.98182459e-02  2.15607602e-03  1.05865179e-02
  -9.91316140e-02 -9.81739834e-02 -1.10172279e-01 -2.15710383e-02
  -1.24513179e-01 -4.85126823e-02 -2.60075666e-02 -1.06783479e-01
  -7.51037076e-02 -2.98261251e-02 -2.02883501e-02 -6.42260611e-02
  -1.07733151e-02 -8.90249610e-02 -7.46581405e-02 -7.04185292e-03
  -9.09799803e-03 -4.68019545e-02 -1.44276798e-01 -1.30400369e-02
  -4.36977111e-02 -3.72904502e-02 -4.20784727e-02 -2.92645325e-03
  -4.49566133e-02 -1.11024350e-01 -4.64286655e-02 -3.76143605e-02
  -1.12514207e-02 -1.60410583e-01 -5.09282388e-02 -6.21712115e-03
  -9.04263034e-02 -1.70500372e-02 -4.32873629e-02 -1.33219451e-01
  -4.52772342e-02 -2.36732829e-02  2.34165043e-02 -1.87679306e-02
   2.58017369e-02  4.89165112e-02  2.15771962e-02 -8.97011608e-02
  -7.67655969e-02  8.36804789e-03 -5.04058972e-03 -1.97924078e-02
  -4.02347110e-02  6.29145801e-02  1.79812661e-04 -9.96779799e-02
  -1.11737989e-01 -5.43697812e-02 -8.54498222e-02 -1.00879623e-02
  -1.67030357e-02 -2.49279365e-01 -6.66987151e-02 -5.32583557e-02
  -9.12983995e-03 -6.24201111e-02 -1.08565968e-02 -5.29079810e-02
  -1.17721617e-01 -1.14799522e-01  2.37631518e-02  6.92331186e-03
  -1.45038947e-01 -8.23028013e-02 -7.92971253e-02  2.20854320e-02
  -8.55322182e-02 -8.31380486e-02 -6.08261563e-02  9.13576968e-03
  -1.97749678e-02 -1.01269908e-01 -1.68779008e-02 -8.39671418e-02
  -3.55645642e-02 -9.18967202e-02 -2.77101714e-02  1.06191542e-02
  -4.23062732e-03 -6.33355007e-02 -2.56450418e-02 -2.61631329e-02
  -6.64242432e-02 -5.95224015e-02 -1.59105912e-01 -1.97655827e-01
  -5.26385643e-02  7.83964396e-02 -5.83705641e-02 -9.41834003e-02
  -2.47516409e-01 -4.17438261e-02  1.54693136e-02 -1.89605933e-02
  -7.14939833e-02  5.21950461e-02 -2.07737624e-03 -1.50171429e-01
  -6.57119155e-02 -3.35372388e-02  9.61339846e-02 -4.79000658e-02
  -1.65060624e-01  1.73129626e-02 -9.50199366e-02 -1.02827236e-01
   2.37690508e-02 -5.92779703e-02 -2.61744615e-02  3.66821773e-02
  -6.56296760e-02 -7.04061687e-02 -7.76474401e-02 -6.68767467e-02
  -1.11861922e-01 -2.39460245e-02  1.09858522e-02 -1.58298481e-02]
 [ 7.63902292e-02 -1.27909184e-01  1.22501642e-01  2.38893107e-01
  -2.97954679e-02 -4.01168205e-02 -5.98508641e-02 -8.09898786e-03
  -9.49476510e-02  9.35300440e-02 -4.89385203e-02 -1.19929381e-01
   7.05484347e-03  8.71401727e-02 -1.94472522e-01 -1.02317683e-01
  -4.85232025e-02  3.74799669e-02 -1.65337324e-02  6.33909479e-02
   1.83744309e-03  2.40485936e-01  8.71293433e-03  2.96973418e-02
   5.47240339e-02  3.40858027e-02 -1.79728135e-01  4.49415594e-02
  -4.94032428e-02 -1.10018209e-01 -2.54337817e-01  9.52316076e-02
   4.68628332e-02  9.41157266e-02 -1.24756277e-01 -4.79589224e-01
  -2.84152150e-01  8.29076245e-02 -2.05577463e-01 -6.87965378e-02
  -1.00255363e-01 -1.55542761e-01 -1.24213524e-01 -7.08725750e-02
  -9.81957167e-02  1.35021865e-01  1.69606749e-02  4.09175716e-02
  -1.56671822e-01 -1.20552793e-01  2.14722403e-03  1.19161233e-01
   1.55101627e-01  1.28696784e-01  1.35273546e-01  1.42163292e-01
  -3.40140253e-01  1.29913434e-01  9.24604386e-02  1.78595372e-02
   6.60251603e-02  3.91608514e-02 -5.33721410e-03 -7.47755985e-04
   1.34029016e-01 -1.92931145e-01 -7.15008527e-02  4.94610481e-02
   1.23031521e-02 -3.27420682e-02  1.25093788e-01 -9.74546522e-02
  -6.12474345e-02 -7.26023875e-03  8.57079849e-02 -1.62918121e-02
   4.45945747e-02 -4.77150157e-02 -1.36579245e-01  1.45128012e-01
   1.63585380e-01 -1.09449485e-02 -1.27463385e-01 -3.41713056e-02
   4.97726835e-02 -3.63720879e-02 -1.87259093e-01 -2.13539749e-02
   5.13722338e-02 -1.37114212e-01  5.23170456e-02 -1.17090024e-01
  -5.05287573e-02 -9.47585255e-02 -4.26311307e-02 -5.49284443e-02
   3.93460542e-02 -5.26010469e-02  1.01262279e-01  2.34885868e-02
   5.97212091e-02  1.62134357e-02  3.65384892e-02 -7.58959353e-02
  -3.24575342e-02 -1.58529401e-01 -3.96970809e-02 -4.14445549e-02
   4.71701585e-02 -5.14334328e-02  3.11390370e-01 -2.70349622e-01
  -2.70436443e-02 -1.78669374e-02  1.21132277e-01 -1.98999375e-01
   9.24778357e-02 -1.85877487e-01 -2.17524376e-02  1.00743594e-02
  -2.01841295e-01  8.62759948e-02 -4.00634855e-02  2.26033553e-01
  -1.56792790e-01 -1.60869882e-01  3.72870192e-02  1.51665369e-02]
 [-8.93342420e-02  4.51731682e-02 -5.94837032e-03 -2.24745989e-01
   4.44427170e-02  4.28446457e-02  5.21476865e-02 -7.79900178e-02
  -6.97735548e-02 -5.45907542e-02 -4.64769267e-02  8.51577986e-03
   6.79213926e-02 -8.09593722e-02 -2.82789823e-02 -7.97884017e-02
   1.52296433e-02 -8.37005908e-04  3.71348225e-02 -1.92918763e-01
   2.21710913e-02  4.67517935e-02 -1.23544291e-01 -3.11373696e-02
  -4.96425629e-02  3.93054821e-02  4.10641246e-02 -7.69099668e-02
  -2.20554676e-02 -3.60039505e-03  9.54960007e-03 -4.83072028e-02
  -5.01464456e-02 -5.09866029e-02 -1.57215506e-01 -1.65001243e-01
   6.92509720e-03 -3.04423564e-04 -9.20015275e-02 -9.09424052e-02
   4.50585447e-02 -1.00910172e-01 -1.85802534e-01  7.42650628e-02
  -1.81539595e-01 -5.80540821e-02  4.83654812e-02  4.39966395e-02
  -5.60051724e-02 -1.40592396e-01 -4.65423316e-02  8.74973387e-02
   5.29264379e-03 -4.56260741e-02  2.31415220e-02 -1.83368579e-01
   1.39873968e-02 -2.47839056e-02  2.76057143e-02 -9.66349710e-03
  -6.24136552e-02 -4.23227064e-02 -1.06096208e-01 -3.04121897e-02
  -1.01679884e-01 -7.09071681e-02  1.73956335e-01 -7.60617405e-02
  -1.17812447e-01 -1.72187984e-01  4.68206033e-02 -4.82733101e-02
  -6.36487976e-02 -1.57492355e-01 -5.23908064e-03 -9.63114575e-02
  -7.15186968e-02 -4.73699234e-02 -7.84176216e-02  4.48510647e-02
   2.09137667e-02  2.59543676e-02  7.59262368e-02  3.21052372e-02
  -3.60034266e-03 -2.56823689e-01  1.11440219e-01  4.47235219e-02
  -5.99635132e-02 -1.02464808e-02 -1.68480203e-01 -1.47335768e-01
  -1.25642553e-01 -2.74864584e-02 -1.28363043e-01 -2.79007673e-01
  -1.47224963e-01 -1.87367171e-01 -8.16252530e-02 -1.51403874e-01
  -1.89902987e-02 -7.52968490e-02  5.21085262e-02 -6.82149921e-03
  -3.34201865e-02 -4.59296219e-02 -1.76670849e-01 -1.04793645e-01
   2.97017079e-02  4.40471359e-02  7.05856970e-03 -1.84919730e-01
  -1.04317158e-01 -7.40069300e-02 -5.16911373e-02 -1.28962860e-01
   7.88819343e-02  7.95346722e-02 -6.66053072e-02  2.73078363e-02
  -8.15705806e-02  1.14071034e-01 -9.79385376e-02  3.21100131e-02
  -3.21956612e-02 -2.14835569e-01  2.27378197e-02 -6.90143034e-02]
 [-5.04491143e-02  5.43272793e-02 -4.40630391e-02 -1.34122714e-01
  -1.77223433e-03 -6.92059472e-02 -3.33233587e-02  1.25376247e-02
  -5.81424050e-02 -3.76253128e-02 -2.64593866e-02 -3.56605314e-02
  -2.66482942e-02 -1.03069730e-01 -2.71609575e-02 -3.44544612e-02
   3.71149331e-02 -1.15797415e-01 -7.59233236e-02 -6.75143301e-02
  -4.46519405e-02  3.63506451e-02 -1.52628854e-01 -1.58169903e-02
  -7.12546483e-02 -3.64005081e-02 -4.05497588e-02 -7.34997317e-02
  -9.59847309e-03 -1.80595294e-01  9.81967337e-03 -2.76534036e-02
  -3.43455635e-02 -8.61208364e-02 -2.73845084e-02 -8.95303115e-03
  -5.66960275e-02 -7.66138956e-02 -2.65105274e-02 -5.62799461e-02
  -3.44714075e-02  5.32746175e-03  1.62328053e-02 -2.78303996e-02
   4.51506339e-02 -4.65132222e-02  5.85923418e-02 -1.70590192e-01
  -4.71355915e-02 -1.28929868e-01 -1.47662051e-02 -7.37334639e-02
  -2.63715219e-02 -1.07503369e-01 -7.51860999e-03 -8.79367888e-02
  -3.26072052e-02 -2.92270426e-02 -1.17250964e-01 -2.46238355e-02
  -2.41856705e-02 -1.77061543e-01 -4.04959284e-02 -5.43898679e-02
  -4.42109145e-02 -5.52023835e-02 -3.95478122e-02 -7.66957104e-02
  -6.87044039e-02 -1.18457237e-02  2.71701701e-02 -5.97685836e-02
  -5.67701347e-02 -3.13628698e-03 -6.64121434e-02 -2.26099771e-02
   3.59829888e-03 -2.70762760e-02 -3.59677151e-02 -2.53285151e-02
  -2.51896996e-02 -5.51640131e-02 -1.64126530e-02 -5.13767451e-02
  -5.51004894e-02 -9.85940918e-02 -6.79288208e-02 -5.05160503e-02
   9.49635927e-04 -5.44326454e-02 -7.97605142e-02 -2.20242366e-02
  -1.21806651e-01 -4.57067676e-02 -1.30200282e-01 -1.03065126e-01
  -1.07524946e-01 -8.20927098e-02 -9.66819823e-02 -1.78276226e-01
  -2.64045507e-01 -7.37873465e-02 -6.55738935e-02 -3.10297385e-02
  -4.49634716e-02 -1.24937423e-01 -2.78564394e-02 -8.84451568e-02
  -3.89935561e-02  3.26193012e-02 -2.94730114e-03 -5.65335974e-02
  -7.30077252e-02 -2.02900749e-02 -1.29814014e-01 -4.81813401e-02
   7.79877556e-03 -3.86012681e-02  6.65908828e-02 -1.10416277e-03
  -6.53617904e-02  3.38655245e-03 -7.04045296e-02 -3.33146527e-02
  -1.03375763e-01  3.90768546e-04 -5.95576391e-02 -5.46521284e-02]
 [-2.23535486e-02 -1.57519300e-02  1.25124499e-01 -1.28354942e-02
  -1.41839057e-01  4.48503941e-02 -5.23456335e-02 -8.99329782e-02
  -1.73775181e-01 -7.23304525e-02 -1.95070766e-02  2.42627617e-02
  -7.17362538e-02 -1.18959984e-02 -4.52444367e-02 -1.92404032e-01
  -1.49736204e-03  4.69169430e-02 -1.43705785e-01 -1.48363754e-01
   3.76318172e-02  3.74718420e-02 -1.68399769e-03  3.79032269e-02
  -1.12884358e-01 -7.07173496e-02 -6.43732995e-02 -3.17278057e-02
   1.64640415e-02 -1.30198613e-01  3.66757028e-02  3.56812775e-02
   1.10954337e-01 -9.55800116e-02  6.59128129e-02 -1.13995865e-01
  -4.93679270e-02 -7.23983720e-02 -1.47323944e-02 -1.08620584e-01
   2.96113663e-04  7.87175447e-02  7.01313931e-03 -1.82688326e-01
   3.11287027e-02 -1.16578806e-02 -2.62099635e-02  1.06274970e-01
  -5.39638139e-02  4.47579361e-02 -6.57810494e-02 -3.60916322e-03
   4.25598808e-02 -3.72425728e-02  4.03765440e-02  7.39448797e-03
  -9.41189602e-02  1.42246010e-02 -8.51116851e-02 -1.69920810e-02
  -9.42397490e-02 -4.73807268e-02 -6.67433217e-02 -2.17471961e-02
   5.36751300e-02 -4.55431640e-02 -2.80590523e-02 -2.71001812e-02
  -1.84768885e-02  4.39007170e-02 -6.09600395e-02 -2.31896549e-01
  -1.54979527e-01  9.66972187e-02 -1.62602052e-01 -1.74724795e-02
  -1.93156689e-01 -1.15064241e-01 -2.05353215e-01  2.49856077e-02
   8.76792744e-02 -3.85840843e-03  9.86791216e-03 -5.77382259e-02
  -2.87036952e-02 -7.82758594e-02 -1.74970329e-01 -1.05773263e-01
   8.40266410e-04 -4.79409657e-02 -3.47918756e-02 -6.85421750e-02
   7.34722882e-04 -6.90223575e-02 -4.15860154e-02 -6.86647277e-03
  -2.63956189e-02  1.86223432e-01 -5.58264591e-02  7.81648383e-02
  -1.33284599e-01 -1.62717193e-01 -8.04933608e-02 -8.30705836e-02
  -2.59194821e-02 -1.20833285e-01  4.80458513e-02 -1.01189509e-01
   2.97631696e-02 -3.87052037e-02  2.06908703e-01  1.47985471e-02
  -7.70286098e-02  5.58096655e-02 -1.93820119e-01  6.50090948e-02
   1.00132622e-01 -9.12421048e-02 -9.43244472e-02 -1.27568960e-01
  -1.39689356e-01 -1.25408405e-02 -3.53562832e-02  6.62441179e-02
  -2.02311039e-01  2.66534369e-02  1.55439219e-02 -1.56697724e-02]
 [ 6.65331483e-02  1.39113218e-01 -8.73032585e-02  2.02641204e-01
  -1.16254956e-01 -2.04916075e-01  1.68357547e-02  1.61120608e-01
  -1.38388686e-02  3.19540575e-02 -8.38135332e-02 -6.27103169e-03
   3.28982770e-02 -1.61164910e-01  2.75353223e-01  8.76488816e-03
   8.45919997e-02  6.03102520e-02 -5.89082949e-03  1.53294966e-01
  -3.26234028e-02 -2.04697493e-02 -5.01819812e-02  1.30929515e-01
   3.20878215e-02 -8.67621824e-02 -1.57266445e-02  1.39576092e-01
  -1.74273774e-02  1.79486483e-01  3.19620103e-01  1.93759784e-01
   1.65441409e-01 -4.52609770e-02  2.88016707e-01  2.07971752e-01
  -8.67814496e-02 -1.87858820e-01  1.68215364e-01 -2.38496855e-01
   8.07541162e-02  2.74566431e-02 -6.11549849e-03  8.38345438e-02
   1.61322027e-01  1.75042078e-01  8.83199871e-02  1.49767369e-01
   4.00206558e-02 -7.49602765e-02  9.95145645e-03  7.96282198e-03
  -2.41280034e-01  9.84513462e-02 -8.04831237e-02 -7.95914382e-02
  -8.70264471e-02 -1.07639171e-01  1.50749877e-01 -1.18254066e-01
  -7.87836965e-03 -1.29977874e-02  4.98305932e-02 -1.38771772e-01
   1.10149933e-02 -5.87108470e-02  1.43870890e-01  1.88670103e-02
  -1.81270726e-02 -2.02578362e-02 -2.41602096e-03 -2.57489756e-02
   1.32358354e-02  2.06496790e-01 -2.48853508e-02 -1.74788937e-01
   1.73325300e-01  8.06219950e-02  2.17703715e-01 -1.12098530e-01
  -1.69628277e-01  1.97444558e-01  1.21738426e-01 -1.74592994e-02
   2.41332114e-01  2.09584981e-01 -1.67844772e-01  3.26239015e-03
  -2.87060320e-01  1.25845686e-01  5.80151118e-02 -1.29071241e-02
  -1.62658289e-01  7.63877407e-02 -1.38115510e-01  1.86079130e-01
  -1.85453102e-01 -1.01859085e-01  1.76183432e-01 -3.77109461e-02
  -1.63674042e-01  1.27222491e-02 -1.29048796e-02  9.00769085e-02
  -2.87820511e-02  8.31655189e-02  1.10219285e-01  1.28872704e-03
  -9.48199332e-02  5.82604967e-02 -1.68215893e-02 -3.17465663e-02
   8.01652074e-02  2.73652133e-02  1.43052608e-01  1.59105309e-03
   7.70383179e-02 -1.43082533e-02 -5.74079789e-02  9.18078125e-02
   9.19222310e-02  7.62224793e-02 -1.02965884e-01 -9.83391106e-02
   1.25459999e-01  4.48966923e-04  2.06035987e-01 -1.79259665e-02]
 [ 3.28729078e-02 -4.41831872e-02 -1.94847256e-01 -1.25047192e-01
   1.84336439e-01  9.77864210e-03 -1.13449842e-01  9.57968608e-02
  -1.75787285e-02  9.66731086e-02 -3.79437581e-02 -3.17460708e-02
   2.78756442e-03  7.68561941e-03 -4.71093431e-02  8.62695575e-02
  -7.66322091e-02  2.69385949e-02 -1.10642537e-01  2.04175580e-02
   1.00214526e-01 -1.36869118e-01 -6.59101605e-02 -8.51232733e-04
  -1.68553352e-01 -2.53398288e-02  7.39405304e-02  7.51097724e-02
  -1.77396700e-01 -1.28920237e-02 -1.32801235e-01  2.78229862e-02
  -5.47084305e-03  3.27879220e-01  2.13684931e-01  4.12130833e-01
   3.11090052e-01 -9.13002342e-02  2.00740114e-01  6.74885958e-02
   1.48868352e-01  8.45414698e-02 -9.27177742e-02  2.37895131e-01
  -9.58626121e-02 -2.76679039e-01  4.36486974e-02 -9.02354121e-02
  -1.82838619e-01  2.03113910e-02 -1.10459719e-02 -4.22622681e-01
   1.08060151e-01 -1.15333326e-01  6.13170452e-02  1.24073684e-01
  -1.48908615e-01  4.66130823e-02  1.31753638e-01 -2.11468145e-01
   1.00204974e-01  7.96460733e-02 -4.38729534e-03 -2.10936982e-02
  -1.40065372e-01  1.24536753e-01  7.62551427e-02  1.26648219e-02
   2.23524962e-03  1.17009453e-01  2.75537111e-02  6.14297055e-02
  -9.15926173e-02  1.42053068e-01 -5.34128956e-02  1.99198462e-02
   1.23608120e-01  1.47182077e-01  1.64282009e-01 -6.19311407e-02
   2.87099108e-02 -2.97304112e-02  1.40154824e-01 -2.59844158e-02
  -1.25085965e-01  4.74440992e-01 -1.28976181e-01 -1.07133232e-01
  -7.08984435e-02  1.60154998e-01 -1.19861037e-01 -9.88522172e-02
  -7.01245591e-02  2.57624965e-03  4.79072779e-02 -1.89172067e-02
   2.22710848e-01  2.26503193e-01  7.68616423e-02 -6.00492060e-02
   3.87328677e-02 -3.71346287e-02 -1.40610442e-01  2.43126061e-02
  -1.83983997e-01 -6.60271421e-02 -6.47337809e-02 -5.79247288e-02
   3.24517459e-01 -2.38343552e-02 -1.60251796e-01  1.85644835e-01
   1.72376946e-01 -8.02777614e-03 -7.94750229e-02 -5.90427630e-02
  -1.51240900e-01 -6.68281969e-03  1.86211672e-02  1.49669573e-01
   2.91883081e-01 -1.59718469e-01  8.56372043e-02 -1.39776096e-02
   2.02089950e-01 -1.34662971e-01 -2.84080859e-02  7.48415142e-02]
 [ 3.52682360e-03 -7.58985057e-02  1.36488557e-01  7.40486830e-02
   9.61100087e-02 -8.88158530e-02 -1.66288689e-01 -1.26384780e-01
  -1.84262067e-01 -2.44711321e-02 -2.55164467e-02 -6.04406297e-02
   1.75785031e-02 -1.25880567e-02 -2.12704420e-01 -4.34734710e-02
  -1.89887136e-02 -5.67080416e-02 -7.71666169e-02 -1.67650998e-01
  -5.86258247e-02  1.10106863e-01 -8.83256458e-03 -1.57027543e-01
  -5.65113463e-02  6.17246367e-02 -8.16694349e-02 -3.17342393e-02
  -4.68915142e-03  1.37936752e-02 -2.28711724e-01  8.95889848e-02
  -1.43134668e-01 -9.22202840e-02 -7.42692426e-02 -1.78446263e-01
  -4.03632559e-02 -1.04871010e-02 -1.92803398e-01  2.33283713e-02
  -1.10378973e-01  2.19928659e-02 -1.99069038e-01 -7.90252835e-02
  -1.15548655e-01  1.35666013e-01  9.15166661e-02  1.64120942e-01
  -1.84444726e-01 -1.91834550e-02  5.32296039e-02  3.35121388e-03
   6.79047406e-02  8.54329616e-02  7.40558282e-02 -5.64377829e-02
  -9.56062600e-02  4.21609990e-02  1.05317876e-01 -5.86451031e-02
  -3.18658873e-02  7.12242797e-02  2.83351894e-02  8.77463147e-02
   7.56715685e-02 -1.13209412e-01  6.68739229e-02 -5.46661802e-02
   7.96785951e-02  1.85968429e-02  5.87857105e-02 -6.79619983e-02
  -1.83451772e-01 -1.00981832e-01  9.95836183e-02 -3.26595968e-03
   2.75139753e-02  5.38138337e-02 -1.34544954e-01  1.39305025e-01
   4.06257138e-02 -1.59085840e-01  6.29696548e-02 -1.89540610e-02
   6.66486472e-02 -2.74266433e-02 -1.46485806e-01 -1.82411447e-01
   1.04278132e-01 -1.25218183e-01  6.34153485e-02 -6.38837889e-02
  -3.40448618e-02 -2.40804031e-02 -1.86200783e-01 -1.75319239e-01
  -6.72385544e-02 -6.29965365e-02 -1.79628620e-03  4.68230508e-02
   2.82901525e-02 -1.05038397e-01 -1.78455990e-02 -5.08359075e-03
  -2.66963020e-02 -1.08105898e-01 -1.81455165e-02 -7.85373747e-02
  -7.32583040e-03 -1.51939169e-01  2.35538855e-01 -1.09261513e-01
  -6.39094934e-02  3.94069329e-02  1.42623316e-02 -1.46662250e-01
   4.09968123e-02 -1.58651829e-01 -1.06056724e-02  6.76114392e-03
  -2.85063237e-01  9.55973342e-02 -4.79166992e-02  2.13624477e-01
  -1.21848613e-01 -4.91702147e-02 -3.83551866e-02  9.00852121e-03]
 [-1.93406045e-01 -7.07639381e-02 -2.60187626e-01 -1.85958087e-01
  -8.59997049e-02  2.02632919e-02  7.89684951e-02  3.16523351e-02
   3.47212367e-02  1.01239517e-01 -1.40659004e-01 -4.25623134e-02
   1.11609004e-01 -9.09892544e-02 -1.18135422e-01  8.67926106e-02
  -8.16716626e-02 -4.51536812e-02  2.26731420e-01 -1.90185726e-01
  -1.82527021e-01 -1.78544044e-01 -1.97859723e-02  3.82726006e-02
  -1.64156482e-01  5.56622520e-02  7.65793994e-02 -1.62617639e-01
   5.22542745e-02 -5.57168759e-02 -2.71889150e-01 -2.96314627e-01
  -7.11659528e-03 -6.88117221e-02  6.72506094e-02 -5.51281087e-02
   2.90925410e-02  1.92525163e-01 -2.90963575e-02  5.35980016e-02
  -6.21524267e-02  9.24756378e-03 -2.76923627e-01  2.05511615e-01
  -3.54417600e-02 -1.29638612e-01  1.97740570e-02  5.15276417e-02
   2.65064789e-03 -1.38621777e-01  1.01827569e-01 -1.38241053e-01
  -9.19922739e-02 -5.84890172e-02 -8.19273889e-02 -1.32753700e-01
   2.87400912e-02 -1.75803468e-01  3.72738689e-02 -2.56769657e-01
   5.96563332e-02 -1.31518662e-01 -1.68511830e-02  6.74607828e-02
  -2.13727489e-01 -2.38757152e-02  4.15462442e-02 -1.23227507e-01
  -4.23231274e-02 -8.34004779e-04  9.52209756e-02  7.73480162e-02
   8.56237486e-02 -1.59495369e-01 -1.23585895e-01 -2.60838002e-01
   4.84325252e-02  2.71591432e-02 -5.74289151e-02 -1.19126603e-01
   4.17158343e-02 -1.57474339e-01 -4.36696112e-02  1.96057502e-02
   8.68044794e-02  2.17014691e-03  2.19559029e-01  1.79974332e-01
  -3.68066102e-01  1.06763374e-02 -2.26402909e-01 -2.64187306e-01
   5.55513799e-02  8.61726627e-02 -3.00835937e-01 -2.70985544e-01
  -4.34176959e-02 -2.40950331e-01 -1.10110328e-01 -1.91354066e-01
  -2.78452486e-02 -1.11689992e-01  3.92973684e-02  5.20621836e-02
  -2.11216748e-01  9.69489068e-02 -2.54746020e-01 -1.55656673e-02
   8.86324942e-02  1.07728332e-01 -9.17085558e-02 -7.89821669e-02
  -1.81581289e-01 -5.06564602e-02  3.61287892e-02 -8.12243819e-02
   3.64871547e-02  2.68706996e-02  4.80378941e-02  1.48937285e-01
   1.56885553e-02  2.45305561e-02 -3.54265533e-02 -1.56089365e-01
   7.87718222e-02 -1.34932354e-01 -1.38133496e-01 -9.60297137e-02]
 [ 1.07129598e-02 -4.09033224e-02 -1.89821105e-02 -2.56677479e-01
  -1.91790640e-01 -4.16019820e-02 -1.46057740e-01 -7.80919418e-02
  -1.74840707e-02 -2.95621604e-02 -2.52601821e-02  3.51008736e-02
  -1.46833792e-01 -5.97242452e-02  1.24945631e-02 -9.72622558e-02
   4.63111810e-02 -1.77510336e-01 -2.95413490e-02 -4.99892123e-02
   2.53952965e-02  3.23156058e-03 -1.88724965e-01 -5.29426262e-02
  -6.67144358e-02 -7.34097213e-02  5.03068324e-03  1.24343559e-02
  -3.57760601e-02 -7.30340416e-03  1.52682019e-02 -9.93986130e-02
  -2.74580240e-01  4.51491848e-02 -5.87376021e-02  8.71893391e-02
   1.11829959e-01 -7.54852816e-02 -4.40209210e-02 -4.26499471e-02
   4.12298192e-04  3.46692768e-03 -1.08833514e-01 -3.94933484e-02
  -7.84963593e-02 -1.44918665e-01  1.19626634e-01 -1.94195226e-01
  -5.40736392e-02  1.39645282e-02 -1.38757126e-02 -4.39960510e-02
  -4.48732749e-02 -1.89791799e-01  1.76871251e-02  1.60299744e-02
  -5.18290550e-02 -5.41723752e-03 -9.08600241e-02 -5.57925813e-02
  -7.96997398e-02 -5.17782159e-02 -3.88508737e-02 -8.07538554e-02
  -2.39505135e-02 -1.06293917e-01 -3.83188464e-02 -1.29522040e-01
  -1.25245139e-01 -1.42637163e-01 -1.42282182e-02 -5.80689758e-02
   2.93357652e-02 -1.33129969e-01 -1.02472946e-01 -1.25972569e-01
  -5.88922240e-02 -3.79777513e-02 -5.31243384e-02  3.85340415e-02
   6.61344733e-03 -2.52617657e-01 -1.46480888e-01 -3.01736817e-02
  -5.67770898e-02 -7.51520623e-04 -1.49946451e-01 -5.82007468e-02
  -7.68023953e-02 -6.47308305e-02 -1.56598330e-01 -6.25000894e-02
  -1.28529310e-01 -9.42057092e-03 -2.02443898e-01 -1.00126430e-01
   8.44671205e-03 -6.55229688e-02 -3.19760852e-02 -1.06896602e-01
  -1.08556971e-01 -1.06863923e-01 -8.93937647e-02  8.61784145e-02
  -9.32431892e-02  5.36324717e-02 -7.25401267e-02 -5.97154088e-02
  -7.98110757e-03  9.61900651e-02 -2.42579319e-02 -3.27888271e-03
  -1.61424249e-01 -1.33970216e-01 -1.54472992e-01 -1.76131621e-01
  -8.22213590e-02 -3.12686898e-02 -2.06350181e-02  3.88543047e-02
  -7.70530179e-02 -8.04839432e-02 -7.66962627e-03 -5.89627810e-02
   5.72322384e-02  2.74545662e-02 -7.14389011e-02  1.42110316e-02]
 [ 1.25447065e-01  1.40570884e-03  1.52618410e-02 -1.60867721e-03
  -2.04528689e-01 -8.33276510e-02  2.97294371e-02  6.08425289e-02
  -1.15870625e-01 -6.17579557e-02 -6.59034327e-02  5.92399538e-02
  -1.49830505e-01 -1.03986613e-01  1.00960493e-01 -2.85482794e-01
  -9.66177061e-02 -2.97945645e-02 -1.08043373e-01 -8.99266601e-02
   1.20642997e-01  5.43797426e-02 -1.33222431e-01 -9.88323987e-02
  -3.26565728e-02 -8.52088854e-02 -3.71025428e-02 -4.16358672e-02
   5.39188981e-02 -5.94624784e-03 -9.81354192e-02 -8.24389383e-02
  -6.38714731e-02 -8.34255964e-02  6.92195743e-02 -2.31954642e-02
  -7.14603141e-02 -1.39391199e-01  8.48960783e-03 -2.54211724e-01
  -1.05794854e-01  1.10048145e-01  5.73561713e-03 -6.98636612e-03
   8.06964263e-02  4.37366031e-02 -6.11836426e-02  6.98114559e-02
  -1.97043642e-01  5.49114272e-02 -2.67070718e-02  1.20813720e-01
  -2.77381931e-02 -4.08683047e-02  7.05869794e-02  7.81671330e-02
  -2.00216711e-01  1.03042431e-01 -1.85844041e-02 -6.84311017e-02
  -2.83111315e-02 -7.76016265e-02 -8.71221442e-03 -4.15186845e-02
   1.35988116e-01  2.49601435e-02  1.99535135e-02  6.98713586e-02
   7.86214694e-02  5.72258495e-02 -2.68680193e-02 -1.53048709e-01
  -3.43994021e-01  1.05756111e-01 -6.48440942e-02 -1.53204903e-01
  -8.17380846e-02 -1.10960260e-01 -1.50675818e-01  2.22885571e-02
   6.32922500e-02 -1.45280465e-01  9.43979993e-02 -7.71638006e-02
  -7.27982894e-02 -2.08304841e-02 -1.93580821e-01 -9.63873044e-02
  -3.92310135e-02 -1.02248080e-01  4.76531275e-02  3.50480042e-02
   1.80902029e-03 -4.54936996e-02 -8.33735019e-02  4.36245650e-03
   3.12124509e-02 -1.41430777e-02  9.97587964e-02 -1.30720720e-01
  -2.20233887e-01 -5.36381453e-02 -5.31382374e-02  3.21058882e-03
   1.15096802e-02 -1.24249965e-01  1.34488437e-02 -3.64163592e-02
  -5.58494404e-02  8.40259492e-02  1.26369596e-01  1.94429159e-02
   1.63398609e-02 -6.45217299e-02  1.10088987e-02 -1.32785931e-01
  -3.60267721e-02 -1.28738299e-01  4.50159162e-02 -7.74142742e-02
  -1.56673208e-01 -2.10960396e-02 -3.82174505e-03  5.77411354e-02
  -2.54929960e-02  5.44310026e-02 -5.02335168e-02  5.51173463e-02]
 [-1.36705220e-01  2.69866195e-02  8.07309337e-03  4.94055487e-02
   6.92083081e-03  9.07930285e-02 -6.52460614e-03  1.17293529e-01
  -1.08820371e-01  7.85627663e-02 -2.86691934e-01 -6.80205375e-02
  -7.91003928e-02 -6.17446303e-02  3.15171450e-01  2.41725091e-02
   1.43953472e-01  6.29530549e-02 -7.23425820e-02  1.87595099e-01
  -2.73704212e-02 -4.62544383e-03 -1.09198749e-01  2.56270498e-01
  -1.54904416e-02 -8.59314054e-02  7.04936907e-02  4.52974997e-02
  -1.25871405e-01 -4.47396711e-02  1.73391968e-01 -9.39834565e-02
   2.27506787e-01  2.85715491e-01  6.63971528e-02  2.18636692e-01
   7.92470053e-02 -1.43664911e-01  1.22940555e-01 -2.27910951e-01
   2.40065992e-01  3.04834731e-02  5.83076365e-02  3.70304845e-02
   1.30767792e-01 -4.46430687e-03 -1.49252966e-01 -2.65835315e-01
   5.33263125e-02 -1.75973117e-01 -3.89785394e-02 -1.86234098e-02
   1.61058046e-02  1.15370184e-01  2.92652175e-02 -1.79866418e-01
   4.13287431e-03 -7.96237513e-02 -1.32858023e-01 -1.32426471e-01
  -5.53267933e-02 -4.22433689e-02  1.05207637e-01 -1.42611917e-02
  -2.15127140e-01  1.27326706e-02  7.48503357e-02  9.09966752e-02
   8.87926947e-03  1.96550190e-01 -2.82298662e-02  5.10727093e-02
   7.59657323e-02 -8.43712240e-02  8.48283432e-03  2.36521199e-01
   2.13160440e-01  8.67822990e-02  1.42853439e-01  3.94350030e-02
  -1.11387847e-02 -7.88956508e-02  1.87542766e-01  6.90057734e-03
   1.02751456e-01  1.04640245e-01 -1.46142632e-01  1.40885249e-01
  -7.27585889e-03  1.72723472e-01 -7.12106237e-03 -9.84401926e-02
   7.67260119e-02 -4.29422371e-02  8.41385350e-02  1.17326842e-03
   1.92432646e-02 -1.96371198e-01 -3.75350378e-02  1.21833704e-01
   1.88637301e-01 -6.44464195e-02 -1.61163121e-01  5.32065146e-02
  -1.64929405e-01 -8.97483081e-02 -1.22169800e-01  7.55183548e-02
   9.41991955e-02 -1.06239449e-02  1.60444811e-01 -6.48650527e-02
   2.10689783e-01 -6.47568842e-03  2.32153609e-02 -1.88085988e-01
   2.91601747e-01  1.29804027e-03 -1.12178795e-01  9.41244513e-02
   1.59695819e-01  7.19210654e-02 -5.87006391e-04  7.71004036e-02
   1.75179973e-01 -6.93382993e-02  1.11274891e-01  1.23542495e-01]
 [-4.96360939e-03 -6.84027970e-02 -9.33417529e-02 -7.11548105e-02
  -8.67240950e-02 -2.90731657e-02 -6.90610707e-02 -6.15511984e-02
   1.99090555e-01  6.38771430e-02  1.61308631e-01  2.07640287e-02
  -4.26193923e-01  7.75556564e-02 -7.64327347e-02  2.52586305e-01
  -1.71289265e-01  2.62330193e-02  2.59734124e-01  8.95631537e-02
   3.42099667e-02 -4.64384742e-02  1.84225142e-01 -8.89986455e-02
  -4.30959389e-02 -4.76288944e-02  6.83795381e-03  6.64038882e-02
   9.19356421e-02  1.93880737e-01  9.51605588e-02  2.71864347e-02
  -2.05084518e-01  1.52545750e-01 -1.90025195e-02  2.34846860e-01
   2.86569595e-02  6.64685946e-03  1.80214584e-01 -2.06826311e-02
   2.44604662e-01 -1.06389903e-01  1.72548756e-01  8.30130354e-02
   3.41881543e-01 -2.39637852e-01  3.57647538e-02  1.37850687e-01
  -6.12704642e-02  1.33815557e-01 -1.21161848e-01 -7.19687119e-02
   1.24233700e-01 -6.71327263e-02 -1.30857125e-01  2.15099201e-01
  -1.57120511e-01 -2.05350503e-01  1.36246487e-01 -6.35262355e-02
  -1.89871751e-02  1.32436648e-01  5.69415838e-02  3.44202258e-02
  -9.30530876e-02  1.30693540e-01 -7.43927360e-02 -3.22204828e-02
   1.97710260e-03 -4.41808924e-02  2.91300006e-02  1.84959874e-01
   5.66708483e-03 -1.39240310e-01 -2.25267321e-01 -1.82763897e-02
  -5.85312843e-02  2.46836782e-01 -3.76907438e-02  9.48974714e-02
   3.88170518e-02  7.49501511e-02 -5.05991094e-02  3.32381874e-02
   1.22805387e-01  1.33641034e-01 -1.13395393e-01 -1.27222195e-01
  -1.12100810e-01 -6.62573949e-02 -4.87945043e-02  1.37002751e-01
  -6.46783505e-03  1.21190257e-01  5.76656461e-02  6.24090694e-02
  -3.78883593e-02 -6.98723793e-02  7.50025734e-02 -2.52012312e-01
   1.24775849e-01  7.58509040e-02 -1.01224696e-02  1.86053157e-01
  -1.26102805e-01  2.58227754e-02  8.70569348e-02 -9.96658057e-02
   1.35421753e-01 -1.66490711e-02  5.04880250e-02  1.82913840e-01
  -8.17487165e-02 -2.02275366e-01  5.53639792e-02  2.50397511e-02
  -2.39825502e-01  2.00157747e-01  1.61911637e-01 -1.54053912e-01
  -1.65576801e-01  7.30037736e-03  3.42378439e-03 -1.29859179e-01
  -4.05190978e-03  8.76696706e-02 -5.27454764e-02  3.26293632e-02]
 [-2.87570599e-02 -1.27658337e-01  9.83283296e-02 -1.56070627e-02
  -9.39390883e-02 -4.48503159e-02 -1.25004813e-01  5.84369414e-02
  -2.75997519e-02 -8.93852208e-03 -6.35107979e-02  5.14454432e-02
  -1.23874731e-01  1.32711455e-02 -1.47960693e-01 -1.44840419e-01
  -5.34954220e-02  3.59563567e-02 -2.64518671e-02 -4.83173132e-02
  -1.86998993e-02  4.22268808e-02 -1.89945791e-02 -8.40328708e-02
  -8.91488791e-02  2.89384220e-02 -5.84714115e-02  3.94055918e-02
   3.98261957e-02  4.57306691e-02 -1.95485860e-01  1.77516550e-01
  -9.73813683e-02 -8.10654536e-02  3.19511630e-02 -2.34886825e-01
   3.96541730e-02 -9.93595794e-02 -9.54377651e-02 -2.80148052e-02
  -1.11496218e-01 -2.01273314e-03 -1.09354824e-01 -1.62414089e-01
  -7.82211497e-02 -1.65451728e-02  4.70502414e-02  1.50120705e-02
   2.67349333e-02  1.78489849e-01 -1.56145850e-02 -3.68918404e-02
   1.39806941e-01 -1.31808773e-01  1.19265832e-01  3.10363714e-02
  -1.15403675e-01  9.22441930e-02 -6.31770678e-03 -5.99237718e-03
   6.22526258e-02  4.52112444e-02  1.98022462e-02  3.68622243e-02
   3.10853422e-02 -1.55511666e-02  5.32483906e-02  5.47608174e-02
   8.93884003e-02 -4.66186441e-02  4.31538858e-02 -5.92810996e-02
  -1.14239916e-01 -3.95590626e-02  5.52865975e-02 -1.15592666e-01
  -1.71860501e-01 -5.55991046e-02 -1.26136810e-01  1.31979316e-01
   5.35978265e-02 -1.61432996e-01  9.23669264e-02 -1.45312715e-02
   1.62169989e-02 -4.77555431e-02 -4.52819001e-03 -2.80105948e-01
   1.00948222e-01 -1.83337092e-01 -8.99219234e-03 -7.18892589e-02
  -1.86373387e-02 -6.04524836e-02 -2.84676310e-02 -1.41719788e-01
   5.04897535e-02  1.35715076e-04 -2.93306597e-02 -6.56584464e-03
  -3.22027728e-02 -8.59220177e-02  6.31885976e-02  1.72083974e-02
  -4.45998572e-02 -3.20778936e-02 -4.42364961e-02 -8.01826268e-02
   3.49486731e-02 -9.80745330e-02  1.58536404e-01 -8.37421715e-02
  -6.45059571e-02 -1.48601178e-02  1.34069435e-02 -1.97806597e-01
  -6.68070689e-02 -1.56579375e-01  5.00514768e-02 -5.40922806e-02
  -1.71612486e-01 -3.52910645e-02 -5.81210628e-02  6.54909760e-02
  -7.32563883e-02 -4.50042337e-02  5.44071198e-02  6.92663193e-02]
 [-2.34177366e-01 -2.09167972e-01 -2.84303665e-01 -9.52270553e-02
   8.02804604e-02 -7.89008960e-02 -6.75383657e-02 -8.42992589e-02
   7.59306848e-02 -4.62574922e-02  1.71116471e-01 -6.83112293e-02
  -4.41398062e-02 -1.17690740e-02 -8.84988829e-02  3.84494103e-02
  -1.04650386e-01 -6.99308664e-02  2.86015838e-01  1.44674972e-01
   5.76286577e-02 -1.09056488e-01  1.03225447e-01 -8.61522257e-02
  -2.45949365e-02  5.86683787e-02 -3.62667777e-02 -5.99782243e-02
  -1.01421297e-01 -5.24872392e-02 -8.50512683e-02 -3.84202033e-01
   3.38018909e-02  2.68882383e-02 -1.05892099e-01 -5.46192154e-02
   4.73832153e-02  1.92711458e-01  5.19041009e-02  4.94726710e-02
  -1.36303380e-01 -1.71977773e-01 -2.87606090e-01  2.68371016e-01
   1.42868003e-02 -2.30093762e-01  1.08345747e-01  6.12363108e-02
   2.13055667e-02 -9.55414772e-02 -2.87633459e-03 -1.60987705e-01
  -1.47287741e-01 -3.21877897e-02  3.75296082e-03 -3.49445879e-01
  -3.75411548e-02 -8.51970389e-02 -3.31838839e-02 -3.62683088e-02
  -3.90802547e-02 -8.84587243e-02  9.37895849e-02  5.79821393e-02
  -1.30759373e-01 -5.40356375e-02  2.10438654e-01 -1.63429558e-01
  -1.61640868e-02 -9.50722098e-02  4.96716984e-02 -6.56432211e-02
  -3.15394811e-02 -1.64207563e-01 -7.09548220e-02 -8.50386173e-02
  -1.21033899e-01  1.60890102e-01  2.61733264e-01 -1.26138359e-01
  -9.24502686e-02  1.06925175e-01 -6.25741261e-04 -4.73598652e-02
   4.19760533e-02  4.41104658e-02  7.76151568e-02  7.98486993e-02
  -1.09438568e-01 -9.32836086e-02 -1.34111643e-01  8.05925652e-02
   3.48313414e-02 -1.60523757e-01 -1.16351202e-01 -2.48182893e-01
  -5.37175825e-03 -6.30823746e-02 -2.54069656e-01 -1.63063616e-01
  -9.43217054e-02  8.76491442e-02  1.46716997e-01 -8.23067781e-03
  -6.73440546e-02  4.01443839e-02 -1.11412749e-01 -3.42680439e-02
  -5.30684218e-02  6.32371604e-02 -1.03201620e-01  7.63895810e-02
  -7.70324916e-02  5.79191297e-02  7.25558996e-02 -1.41046450e-01
  -9.62696522e-02 -3.19559574e-02  1.55316740e-01  1.04656741e-01
  -1.77520081e-01  2.84574013e-02 -1.45183519e-01 -3.31808962e-02
   2.73965858e-02 -3.57058905e-02 -1.29596204e-01 -8.70401599e-03]
 [-3.83411460e-02  1.13032889e-02 -1.84131954e-02 -1.86737731e-01
  -1.30484208e-01 -3.07199433e-02 -6.52494580e-02 -3.17502581e-02
  -8.69982764e-02 -7.12175220e-02  1.31874653e-02  1.17049932e-01
  -8.44212249e-02 -6.49422258e-02 -7.38529861e-03  1.34774204e-02
  -1.21198138e-02 -1.06813103e-01  5.95979393e-02 -1.84244048e-02
   1.00723365e-02 -1.01744607e-01 -1.87162131e-01  4.51800181e-03
  -8.90422687e-02 -9.13501680e-02 -1.54471712e-03 -3.14891413e-02
  -3.85556519e-02 -2.65327212e-03 -7.70082697e-02 -7.15269968e-02
  -1.59715146e-01 -8.31596106e-02 -6.13584332e-02  7.42719397e-02
  -2.43412759e-02 -1.28289964e-02 -4.20703515e-02 -2.11970508e-02
  -1.12480499e-01  1.76582336e-02 -5.00387847e-02 -9.01943892e-02
  -9.41353291e-03 -8.55952576e-02  2.60457881e-02  1.50541998e-02
  -2.19412684e-01 -3.65182534e-02 -6.92798942e-02 -6.19801022e-02
   3.80859636e-02 -1.87628269e-02 -8.44064951e-02 -2.37977430e-02
  -6.44425228e-02 -9.86438096e-02  1.12946369e-02 -1.47086326e-02
  -2.74754688e-02 -2.27292702e-01 -1.83292094e-03 -4.06386778e-02
  -1.04460008e-02 -9.35834274e-02  5.00896387e-02 -1.06947884e-01
  -6.03237525e-02 -2.34425515e-01 -1.26878977e-01 -7.28191286e-02
  -1.07676491e-01 -7.85890892e-02 -6.91088960e-02 -1.54139489e-01
  -5.68922348e-02 -4.78427894e-02 -4.58758287e-02  5.62716909e-02
   6.30048364e-02 -1.14691081e-02 -1.69975415e-01 -7.63127133e-02
  -2.73013879e-02 -5.18569760e-02 -8.40246156e-02 -1.60532117e-01
  -5.75195886e-02 -1.20927550e-01 -8.23097527e-02 -2.37729102e-02
  -1.03309341e-01  1.69095909e-03 -1.62605569e-01 -1.57273382e-01
   1.50714535e-02 -1.10803783e-01  2.63096802e-02 -1.39436185e-01
  -2.45059524e-02 -1.22094352e-03  2.89176051e-02  1.48240581e-01
   2.67418809e-02  1.91326272e-02  5.64294532e-02 -9.70767438e-02
  -1.55697495e-01 -4.42295261e-02 -5.96119538e-02 -5.17909508e-03
  -4.83651385e-02  7.34544620e-02 -5.24170026e-02 -7.06234425e-02
  -1.23699471e-01 -4.34873961e-02 -7.64074400e-02 -1.06263019e-01
  -1.59910455e-01 -5.60784992e-03 -5.62616922e-02 -1.50060607e-03
   4.03794758e-02  7.51215816e-02 -2.58480776e-02 -4.77551222e-02]
 [ 5.62125538e-03  6.01173751e-02  6.31400496e-02  8.85791797e-03
  -2.37722650e-01 -6.01577125e-02  1.37319975e-02  2.37623099e-02
  -1.25799268e-01  3.88656445e-02 -2.25153834e-01 -2.62065250e-02
  -8.50403979e-02 -1.06649011e-01  4.85357642e-02 -1.37614369e-01
  -4.89476286e-02  1.92736704e-02 -5.24644293e-02 -1.92954794e-01
   3.53218690e-02  4.12436277e-02 -1.92844614e-01 -3.50586139e-02
   1.19004194e-02 -2.83833947e-02 -1.17729744e-02 -6.96534067e-02
  -3.48348059e-02 -5.59425727e-02  8.83396436e-03 -4.19509187e-02
   2.64804102e-02  3.09034367e-03 -5.71183525e-02  1.58421881e-02
  -3.67859639e-02  3.49832661e-02 -6.17329106e-02 -5.11439070e-02
   2.71759927e-02  1.51247652e-02 -1.49882719e-01 -4.08880971e-02
  -7.39782974e-02  4.30189222e-02  3.78253572e-02 -1.35472324e-02
  -2.79500484e-01 -5.42275682e-02 -1.21121921e-01  2.82472912e-02
   8.18714723e-02 -2.04257239e-02 -3.89306131e-03  8.02418068e-02
  -3.14002894e-02 -4.78207730e-02 -4.03476320e-02  3.97206284e-02
  -4.89710309e-02 -1.58391390e-02 -5.02684526e-02 -2.63737179e-02
   3.43189612e-02  2.85495501e-02  1.19078115e-01 -8.10024366e-02
   6.66148886e-02 -2.74424274e-02 -5.52277826e-02 -1.26017004e-01
  -3.07552010e-01  3.68966255e-03 -2.73258612e-02  8.23128521e-02
  -1.07384086e-01 -1.57666326e-01 -8.87431204e-02  9.38465446e-02
  -2.19576862e-02 -1.10568754e-01 -4.06366400e-03  4.86081503e-02
  -1.36811107e-01 -2.38437112e-02 -1.06120609e-01 -6.51151091e-02
   7.36018037e-03 -1.01434991e-01 -1.68684032e-02  4.84054871e-02
   7.91191980e-02 -8.23588297e-02 -2.89499521e-01  3.04072276e-02
   8.30351040e-02 -1.52492732e-01  1.98165387e-01 -5.26395515e-02
  -1.10193133e-01 -9.24300849e-02 -7.87950978e-02  1.14088535e-01
  -1.16934419e-01 -2.31131669e-02  1.26803428e-01 -9.42457467e-02
  -3.22119147e-02  5.83180087e-03  6.50527999e-02  3.83447520e-02
   5.11075146e-02 -6.06944375e-02 -4.75900583e-02 -3.08932588e-02
  -8.94573331e-02 -9.61738899e-02 -9.14683379e-03 -3.33163664e-02
  -4.20377264e-03 -4.12944369e-02  2.22345795e-02 -3.03945271e-03
   2.45339004e-03  2.09644213e-02 -9.88819599e-02 -7.46760890e-03]
 [-1.03552721e-01  2.21393943e-01 -4.16416638e-02 -8.20161700e-02
   1.06473252e-01 -9.08588916e-02 -9.59642529e-02  2.51122355e-01
  -1.14949755e-01 -1.69460326e-01 -1.60763592e-01  2.78921500e-02
  -2.04534873e-01  2.47291759e-01  1.55795604e-01  1.39329776e-01
   1.80259198e-01 -2.83872187e-02 -5.07926717e-02  1.65562138e-01
  -1.33226514e-01  1.35081246e-01 -3.32444496e-02  4.76965085e-02
  -1.49277166e-01 -2.58284956e-01  1.13985159e-01  4.93659377e-02
  -1.02375835e-01  2.68459648e-01  1.29154176e-01  1.13520429e-01
   1.08803287e-01  1.40621930e-01  2.97155827e-01  1.05705626e-01
   1.08551510e-01 -7.88587779e-02 -2.62711309e-02 -5.35228401e-02
   1.16833575e-01 -1.34619012e-01  2.93434381e-01  6.26756251e-03
  -3.65357217e-03 -1.03735566e-01  5.74638136e-02 -7.37956539e-02
   7.20535889e-02  1.19596105e-02 -1.60828810e-02 -1.97519764e-01
  -2.53884606e-02  9.37853009e-02  3.94991040e-02  1.32970199e-01
   1.05470881e-01  1.77047180e-03 -1.92528442e-01  2.21481115e-01
   1.54752672e-01 -1.26443222e-01 -1.49679735e-01 -1.01625055e-01
  -1.70753375e-01  8.70949104e-02 -5.55255003e-02  7.02618435e-02
   5.55345528e-02  1.19249180e-01  1.96236104e-01  1.45861194e-01
   2.15426266e-01  2.18865485e-03 -2.80137926e-01  2.58708652e-02
  -5.99042997e-02 -7.59208109e-03  2.18294263e-02 -1.24700945e-02
   4.29739207e-02 -1.60248920e-01  5.85904941e-02 -3.52878124e-02
   5.07116318e-02  3.85166332e-02  1.11641213e-01  1.92788646e-01
   6.31901398e-02 -1.68301724e-02  1.25929967e-01  5.91996722e-02
   2.25432798e-01  4.13728170e-02  1.32870283e-02 -7.84897711e-03
  -2.28105243e-02 -6.90066069e-02  2.86611728e-02  1.49544761e-01
  -9.72067043e-02 -4.49491432e-03 -3.87041946e-03  9.94294435e-02
   1.22417338e-01  3.59011367e-02 -1.75093293e-01  6.34003952e-02
  -3.10896654e-02  1.46792710e-01  1.52388543e-01 -4.97719683e-02
  -3.76071855e-02  1.57503597e-03 -1.17787845e-01  2.87652146e-02
  -5.28121628e-02  6.59115538e-02  3.99486050e-02  3.28772545e-01
   2.75964290e-01  8.38934630e-03  2.85780374e-02  7.23524904e-03
  -1.40861720e-02 -6.35585934e-02 -5.68200275e-02 -4.97465804e-02]
 [-2.38153934e-01 -5.20859100e-02 -5.70737105e-03  2.28857145e-01
   1.17258400e-01 -1.61895808e-02  8.86647310e-03 -9.56573859e-02
   5.85203506e-02  1.69700623e-01 -6.58156797e-02 -1.60857216e-01
   8.23521242e-02 -4.06121835e-02 -1.14864036e-02  9.51840654e-02
   8.29775445e-03  7.14463368e-02  2.06230700e-01  1.63476184e-01
   1.49093419e-01  5.42406291e-02 -3.15083228e-02 -1.49152204e-01
   9.53646749e-02 -2.24847227e-01  1.87290698e-01 -6.69112269e-05
   1.00161089e-02 -9.99326184e-02 -1.57237202e-01 -3.22662145e-01
   1.35156825e-01  5.20149805e-02 -9.43093970e-02  1.66829735e-01
  -7.02450657e-03 -1.07824653e-02  6.54871166e-02 -7.05244690e-02
   1.26082301e-01 -8.99877623e-02 -1.42679900e-01 -1.97799131e-02
   1.19454056e-01  5.54298870e-02  9.15996432e-02  1.09385632e-01
  -1.68580115e-01  4.41898964e-02 -5.01943715e-02  4.16599438e-02
   1.06817938e-01  9.59155113e-02 -8.78254324e-02  8.75518695e-02
  -3.55021469e-02 -5.57385497e-02 -2.37534400e-02 -1.64812952e-01
  -5.96258193e-02  1.16205335e-01  2.89286107e-01  2.47905865e-01
  -6.54818043e-02 -1.06226943e-01  2.17638046e-01 -3.67862871e-03
   4.39994074e-02 -1.29213408e-01 -1.15919873e-01 -7.27425665e-02
   1.17954023e-01  7.91410580e-02 -1.43906340e-01 -1.30568119e-02
   1.48702532e-01  2.47219309e-01  2.25057211e-02  8.12281817e-02
  -8.44740868e-02  2.90190548e-01 -5.02115525e-02 -2.80883089e-02
   3.39681320e-02  2.09761351e-01 -7.48810992e-02 -1.36077553e-02
  -8.18822086e-02 -4.41702735e-03 -4.07452695e-03 -6.57398477e-02
  -5.05046546e-02  1.20026834e-01 -1.16568565e-01 -9.77335945e-02
  -1.85730457e-02 -1.78577647e-01  8.54392163e-03 -9.92550552e-02
   9.32419524e-02 -2.00219173e-02 -2.48555854e-01  9.41647813e-02
  -1.42147452e-01  6.35700524e-02  1.07479215e-01 -3.18622701e-02
   9.14345682e-02  6.70974404e-02 -4.32241596e-02  2.01319661e-02
   6.94196820e-02 -1.09074905e-03  3.89217854e-01 -1.16485376e-02
  -1.34026974e-01  9.73940268e-02 -1.14637621e-01 -5.40922396e-02
  -3.20237614e-02  1.58270359e-01  3.92331779e-02 -2.46016178e-02
   2.32255563e-01  2.18776330e-01 -1.47043606e-02  9.92752239e-02]
 [ 7.62106245e-03 -1.28668407e-02  1.24259628e-01  2.52882205e-02
  -1.94046393e-01  2.17740852e-02 -7.01023489e-02  2.58675944e-02
  -1.40582427e-01  3.59837227e-02  6.31423146e-02  6.59809783e-02
  -2.84339637e-01  3.56152542e-02 -2.38885567e-01 -7.14199543e-02
  -5.30322157e-02  3.78182568e-02 -1.03130110e-01 -1.49535626e-01
   1.13687359e-01  9.10865441e-02 -1.82458505e-01 -1.37674302e-01
   1.79927722e-02 -7.85730258e-02 -9.48526710e-02  7.73760006e-02
  -7.57355765e-02 -1.63502127e-01 -1.79197267e-01  5.41323470e-03
  -1.75124541e-01  6.04543164e-02 -1.01854123e-01 -1.42403767e-01
  -1.05728842e-01  1.41864270e-01 -1.77392051e-01  1.50797009e-01
  -1.40912011e-01 -3.93502861e-02 -1.63629223e-02 -7.60414526e-02
  -4.42052148e-02  4.15091515e-02  5.05240560e-02 -2.18899623e-02
  -1.18537776e-01 -1.20874774e-02 -3.55447680e-02 -3.58249759e-03
   1.52134717e-01 -9.10070837e-02  8.04110765e-02  1.83071045e-03
  -1.02933735e-01  3.76917236e-02 -6.64767250e-02 -1.93666611e-02
   3.79248448e-02  2.71263160e-02  3.69476923e-03  9.32110380e-03
  -9.87403020e-02 -2.05485195e-01  6.83744922e-02 -1.89142730e-02
   1.28660142e-01 -7.93116540e-02 -2.45936085e-02 -8.32829550e-02
  -1.43915594e-01 -2.82307602e-02 -6.42332956e-02 -1.68422274e-02
  -9.98029783e-02  2.80363224e-02 -1.45235538e-01  1.34935886e-01
   1.22917674e-01 -1.08578041e-01 -1.52429760e-01 -6.89556524e-02
   6.69525564e-02 -1.04544632e-01 -7.49213099e-02 -1.19010895e-01
   6.10109456e-02 -1.11272104e-01 -1.03713304e-01 -3.14417183e-02
  -1.74183592e-01 -6.93115368e-02 -1.44275919e-01 -8.87545571e-02
  -6.65114000e-02  6.12541139e-02  7.23366141e-02  1.85070317e-02
  -8.03115368e-02 -3.31758410e-02  3.35049629e-02  5.49318343e-02
   2.86751017e-02  2.74432749e-02  2.55173165e-02  2.90820096e-02
  -8.81660730e-02 -2.58400850e-02  1.43783242e-01 -1.04534335e-01
  -5.01544331e-04  1.50916159e-01  4.56263311e-02 -1.39704004e-01
   6.38619997e-03 -1.92617357e-01  4.86308299e-02 -2.18430348e-02
  -2.65524626e-01  4.73221838e-02 -5.71159124e-02  7.77606368e-02
   2.30880873e-03 -3.95532399e-02 -4.71406579e-02  2.22998690e-02]
 [-1.29756391e-01  3.34736072e-02 -1.57477602e-01 -7.87837356e-02
   3.37034799e-02 -4.74449061e-03 -1.17445096e-01  4.68125381e-02
   2.83357278e-02  2.72492133e-02 -4.50504608e-02  1.72177166e-01
   2.07819268e-02  7.58863017e-02 -1.36836424e-01 -6.80103302e-02
  -6.24847524e-02  5.18235937e-02  1.27088860e-01  6.16921559e-02
  -5.08098155e-02  3.54770906e-02 -1.13595920e-02  1.54412925e-01
   7.53248781e-02  7.25943372e-02  1.50226885e-02 -1.98779717e-01
  -8.70001987e-02 -5.49952649e-02 -4.73356731e-02 -2.63138503e-01
   8.97627547e-02 -1.80483699e-01 -1.98352765e-02 -5.71830422e-02
  -1.30042002e-01  1.76370636e-01  8.13442022e-02 -1.04191922e-01
  -4.19919118e-02 -9.14192945e-02 -1.84289008e-01 -1.93369538e-02
   9.24572721e-02 -2.69890130e-01 -4.76201847e-02  3.04702576e-02
  -9.59413350e-02 -1.22009218e-01  2.58970056e-02 -8.95516947e-02
  -2.82229275e-01 -6.45647570e-02 -8.50154385e-02 -1.54697046e-01
  -2.37196218e-02  9.82741490e-02  1.18302284e-02  2.70337760e-02
   8.74137040e-03 -1.24131225e-03  3.35917692e-03  8.28490499e-03
  -5.04175723e-02  1.78494789e-02  3.53799276e-02 -3.14825252e-02
  -2.06543077e-02 -3.36325765e-02 -7.33087137e-02 -6.96098208e-02
  -8.59531611e-02 -1.06281564e-01  1.15609162e-01  3.99981486e-03
  -8.38889852e-02 -3.19077931e-02  2.05303878e-02 -1.50445998e-01
  -4.28432487e-02  1.13764417e-03 -4.14289236e-02 -3.42496447e-02
   5.10123298e-02 -2.61268288e-01  1.46195844e-01 -1.12886028e-02
  -5.54993674e-02 -4.40724865e-02 -6.75951540e-02 -2.29443431e-01
  -6.87564015e-02 -2.35014454e-01 -5.90009540e-02 -3.24953228e-01
  -2.13933676e-01 -1.86614871e-01 -1.14707485e-01  2.99768969e-02
  -1.13620833e-01  3.38220820e-02  1.25178501e-01  6.54457882e-02
   4.43948805e-02  6.06749244e-02 -1.52518421e-01 -1.13441467e-01
  -1.01715989e-01 -1.08509578e-01  1.41341900e-02 -4.10222039e-02
  -9.35995802e-02  3.11169047e-02  7.57433623e-02 -7.62003064e-02
  -6.86103255e-02 -1.84981599e-01  1.46831930e-01  1.00465268e-01
  -2.46604040e-01  1.18374139e-01 -1.41035765e-01 -1.72924399e-01
  -1.00366836e-02 -3.08972746e-02 -6.85743093e-02 -1.31759465e-01]
 [-8.69711265e-02  6.74924552e-02  2.07313080e-03 -6.94255605e-02
  -1.57664921e-02 -1.47157371e-01 -1.77341327e-01 -8.61788392e-02
  -2.17584118e-01 -1.18776470e-01 -4.22446504e-02  1.16056561e-01
  -1.22414306e-01  1.89855185e-04 -5.63537776e-02 -1.04576968e-01
   1.38972059e-03 -3.08439080e-02  3.64295803e-02 -7.95291066e-02
  -1.93558037e-02 -9.90794078e-02 -1.19618461e-01  3.19195129e-02
  -6.93880171e-02 -7.29686767e-02  2.95221042e-02  7.55673880e-03
   4.40173037e-02 -8.09488073e-02 -2.45712698e-02 -2.93813255e-02
  -3.58622335e-02 -3.83711420e-02 -5.09174205e-02  7.28368759e-02
  -9.44060311e-02  1.17579307e-02 -3.11233941e-02 -2.94519253e-02
  -1.74010530e-01 -6.25941381e-02 -2.67592132e-01 -3.08977105e-02
  -2.77738869e-02 -1.97741725e-02  2.17752401e-02 -9.45602879e-02
  -1.79983795e-01  2.05526371e-02 -5.76393865e-02 -6.40446916e-02
  -4.54871356e-02 -1.41764313e-01 -3.77465785e-02 -1.20537542e-01
   6.71398416e-02  6.06764806e-03 -6.15050532e-02 -8.80212411e-02
  -1.03861757e-01 -1.25380054e-01  5.25977984e-02 -4.21443358e-02
  -4.96240370e-02 -4.08605635e-02 -5.90465614e-04  1.66730303e-02
   1.36911431e-02 -2.43867382e-01 -2.40337085e-02 -1.01157889e-01
   5.80903664e-02 -1.34148881e-01 -1.53764412e-01 -1.14036560e-01
  -3.86027284e-02 -4.69235852e-02 -6.47198409e-02  8.98130983e-02
  -2.73615643e-02 -2.33497676e-02 -1.61506072e-01 -5.06564304e-02
  -5.53503074e-02 -3.14765200e-02 -6.30249158e-02 -6.22252189e-02
   2.90255640e-02 -1.31630497e-02 -8.58687386e-02 -3.33625451e-02
  -6.18360415e-02  7.23747760e-02 -3.18028182e-02 -1.78398848e-01
  -3.90767008e-02 -1.11963004e-01 -3.37149501e-02 -1.85262173e-01
  -2.44261250e-02  7.90510476e-02 -2.27107760e-02  2.53493264e-02
  -6.83318377e-02 -8.01449865e-02 -9.73956008e-03 -8.40338245e-02
  -3.26618701e-02 -8.62509198e-03 -3.24157216e-02  4.03234474e-02
   3.28086577e-02  8.01794603e-02  3.10511682e-02 -1.84206311e-02
  -3.69804204e-02 -4.53485884e-02 -1.49889216e-01 -2.23089308e-02
  -8.37330148e-02 -9.71563458e-02 -3.81517597e-03 -6.41901642e-02
  -9.22298953e-02  5.61526343e-02  4.91380095e-02 -1.85069293e-02]
 [ 3.83333750e-02  3.90905421e-03  7.19146132e-02 -1.25200287e-01
  -1.52454659e-01  9.66616645e-02 -6.44075451e-03 -5.37130097e-03
  -1.70971006e-01 -6.12512231e-03 -2.42432386e-01  1.52739445e-02
  -1.59645393e-01 -7.36647770e-02  5.72093166e-02 -8.55207220e-02
  -2.47313119e-02 -3.86101119e-02 -1.15297809e-01 -3.10414918e-02
   6.67477120e-03  6.20265491e-02 -1.48817867e-01 -1.03024133e-01
   4.15342338e-02 -1.21381171e-01  4.53223847e-02 -5.50704747e-02
   3.93184610e-02 -1.15979351e-01 -6.44151717e-02  1.49705808e-03
   7.27277324e-02  1.68600261e-01  9.32057574e-02 -9.27292854e-02
   3.36106643e-02 -2.20716465e-02  1.66386366e-02 -1.95083678e-01
   5.33142798e-02 -2.39814855e-02 -2.12117866e-01  5.37174717e-02
  -6.36037439e-02 -8.28687102e-03  3.66269760e-02  2.06235610e-02
  -1.43714771e-01  1.49026990e-01 -1.19066253e-01  1.56100700e-02
  -6.68360107e-03  1.30167920e-02  5.35015464e-02  7.18674511e-02
  -9.23069939e-02  1.87711846e-02  4.97604422e-02  6.93205930e-03
   7.99221452e-03 -1.88120119e-02 -9.32509527e-02  2.46227942e-02
   1.03314914e-01 -2.80434024e-02 -9.48443860e-02  4.25765216e-02
   3.77823636e-02  3.85897756e-02 -6.08224086e-02 -9.80776995e-02
  -1.06625341e-01 -7.59301931e-02 -4.02764045e-02 -1.31430835e-01
   8.17600265e-02 -1.65575128e-02 -5.75251505e-02  6.24064766e-02
  -3.45057845e-02 -9.55510437e-02 -9.84082744e-03 -6.70419708e-02
  -9.93230119e-02  4.30185124e-02 -1.80246085e-01  5.60315885e-02
   2.58717258e-02 -6.31658658e-02 -3.68983038e-02  7.58650228e-02
  -2.87034828e-02 -5.84987812e-02 -1.38793036e-01  1.32851051e-02
  -2.74098366e-02 -6.02941737e-02  1.25910714e-01 -1.97911590e-01
  -8.99378285e-02  1.24954417e-01 -3.84013653e-02  9.99149308e-02
  -7.58481026e-02  1.80975012e-02  7.13767782e-02 -7.64008472e-03
  -8.55798870e-02  6.69303387e-02  2.00488731e-01  7.21956939e-02
  -6.15377724e-02 -8.31705183e-02 -9.61523727e-02 -3.42790782e-02
  -5.03777638e-02  3.77338147e-03 -1.00770056e-01 -1.35026932e-01
  -1.11917615e-01 -1.06137052e-01  1.25708878e-01 -3.33542824e-02
  -4.44665598e-03 -4.74836528e-02 -2.60348767e-02 -2.94267777e-02]
 [-1.86245561e-01  1.12797000e-01 -4.23918255e-02 -1.96362697e-02
   6.58246055e-02  9.45568755e-02 -1.59998804e-01  1.18602313e-01
   1.23533592e-01 -9.66158062e-02 -1.14549309e-01  7.72520602e-02
  -8.35225135e-02  1.39640734e-01  8.47457442e-03  1.57393739e-01
   1.59972742e-01 -1.97413247e-02 -8.76313373e-02  1.51110694e-01
  -1.55404331e-02  1.64033681e-01 -3.82928550e-02 -1.09454520e-01
  -1.72285125e-01 -7.73508027e-02  5.90034127e-02 -7.88306352e-04
   8.22400488e-03 -6.63920641e-02 -4.61524613e-02 -5.39026409e-02
  -4.67139408e-02 -4.21858625e-03 -2.20435157e-01  1.42470032e-01
   1.14578292e-01 -3.30850035e-02 -1.15007624e-01  3.79725769e-02
   7.21846940e-03  9.02617127e-02  3.03621709e-01 -6.71154633e-02
   2.35688448e-01 -3.58431861e-02  1.21088699e-01  1.20007008e-01
  -7.47426525e-02  2.22854346e-01 -8.39352161e-02 -1.57346223e-02
   3.18012908e-02  1.05510928e-01  7.68293813e-02 -2.41654534e-02
  -5.88889495e-02  2.75340170e-01  9.92837027e-02  2.10973650e-01
   3.27461734e-02 -1.25083655e-01  4.70126607e-02  1.75636873e-01
  -8.60037431e-02 -2.70869806e-02  2.07787871e-01 -6.02659285e-02
   1.48011833e-01 -5.49737923e-02  1.69814541e-03 -2.08421350e-01
   7.63812810e-02 -9.17294174e-02 -9.04920399e-02 -3.65253165e-02
   1.34452939e-01 -6.31220080e-03 -3.14968899e-02 -4.40315437e-03
   1.42583132e-01 -1.22576959e-01 -1.06142402e-01  8.01013783e-02
  -5.62455729e-02  1.40215397e-01 -1.36281356e-01  1.06955143e-02
  -6.07771277e-02  8.65265727e-03  5.17553128e-02  1.76384538e-01
   5.23221530e-02  2.82720029e-02  1.42119257e-02  8.26148465e-02
   5.45461774e-02 -2.13156760e-01  6.40719831e-02 -8.56352672e-02
   1.85390592e-01  1.74866736e-01 -2.10034639e-01 -8.20804909e-02
   6.79300204e-02 -8.64610821e-02 -3.59293744e-02  4.24089842e-03
   1.08556211e-01  1.69778205e-02  2.10737839e-01  1.25015259e-01
   1.40201434e-01 -1.05309160e-03  5.64635210e-02 -1.61393225e-01
  -8.92137811e-02  5.79404607e-02  8.39454532e-02  2.23916769e-01
   2.60048583e-02 -6.95078634e-03  4.04620357e-02  1.45433424e-02
   7.60554336e-04  2.40364209e-01  6.38840944e-02  1.32922426e-01]
 [-2.79016614e-01 -2.71767706e-01 -2.25221977e-01  6.47900552e-02
  -1.26496524e-01 -4.00305688e-02  1.37321174e-01 -7.67389312e-03
  -1.07844733e-01 -6.98000193e-02 -1.66671023e-01 -2.29135588e-01
  -1.79846138e-01 -3.41593251e-02 -2.58219272e-01 -1.21950977e-01
  -7.85289407e-02 -4.94168513e-02  2.19601274e-01  6.72531724e-02
   4.27154392e-01  7.50341490e-02  1.27717540e-01 -3.06274980e-01
  -1.42923683e-01 -3.15314591e-01 -3.30569185e-02  1.28049374e-01
   5.19195274e-02 -3.42293382e-02 -7.00409040e-02  1.32301405e-01
   1.78857148e-01 -4.22349907e-02  1.40623167e-01  2.58066893e-01
  -1.11402981e-01 -1.68021157e-01  7.41679640e-03 -1.60411984e-01
   7.26066455e-02  4.39536050e-02 -2.84997106e-01 -4.18451615e-02
  -1.42984241e-01  7.34578818e-03  7.26674125e-02 -1.01816908e-01
  -1.08507887e-01  1.56884536e-01 -2.14832872e-01  9.67826601e-03
   2.61109117e-02  8.25920328e-02 -1.51549563e-01  1.57564450e-02
   4.73668287e-03 -3.00433543e-02 -1.38325423e-01 -1.78181663e-01
   8.17773268e-02  4.44445238e-02  2.23265439e-01 -1.80775840e-02
  -1.81917265e-01 -8.71424470e-03  7.65913725e-02  7.04248920e-02
   7.17927366e-02 -1.90498047e-02 -1.56754971e-01  1.91266105e-01
   1.05097644e-01 -1.12486154e-01  1.95038784e-02  9.32331849e-03
  -1.16462940e-02  2.50721335e-01 -5.48325069e-02  1.80108309e-01
  -1.02825224e-01 -2.88889762e-02  9.32202935e-02 -5.30456901e-02
   2.62233652e-02  1.24579720e-01 -1.87103808e-01 -1.32099018e-01
  -3.25525999e-01 -4.55283634e-02  4.01840284e-02 -9.45806876e-02
   2.92821616e-01  1.58480749e-01 -4.19972502e-02  1.44270927e-01
  -9.74831656e-02  1.03587820e-03  8.77570361e-02  3.24197203e-01
  -9.88846049e-02  2.25158874e-02 -5.95311932e-02  2.10374184e-02
  -4.42482024e-01 -1.08807705e-01 -1.49743222e-02 -2.58931872e-02
   1.05614901e-01  2.17378482e-01 -4.07486260e-02  1.23493381e-01
   1.95731506e-01 -4.81390990e-02  1.54759809e-01  2.94860005e-01
  -1.17394542e-02 -1.99808657e-01 -2.45599612e-03 -7.16985464e-02
   1.96196251e-02 -5.76027371e-02 -1.91170096e-01  1.75692642e-03
   6.09573573e-02  1.30044399e-02 -1.03722565e-01  7.13344961e-02]
 [-7.29332864e-02 -1.61583722e-02  5.04436381e-02 -1.23069398e-01
  -1.86990112e-01 -1.45500913e-01  2.22665351e-02 -6.01516431e-03
  -5.90111054e-02 -4.17087190e-02 -2.67059337e-02 -7.59071764e-03
  -9.04872343e-02  8.30361620e-03 -1.32671654e-01 -1.77526876e-01
  -1.96942668e-02  6.35842010e-02  3.17742750e-02 -1.02101393e-01
  -1.91743509e-03  6.76829964e-02 -2.32235953e-01 -1.17289901e-01
   3.66368331e-02 -8.72128457e-02 -4.92243879e-02  4.86814156e-02
   1.03058461e-02 -1.71547234e-01 -9.39301699e-02 -1.04664013e-01
  -3.81318331e-02  4.83528711e-03 -1.73780248e-01 -9.32097882e-02
   3.38141955e-02 -9.84760094e-03 -1.00596532e-01 -6.55586645e-02
  -2.13336557e-01 -1.19919274e-02 -4.44019400e-02 -7.84642473e-02
   1.49055040e-02  1.07136920e-01 -1.92316584e-02  2.78839818e-03
  -1.44235522e-01  9.06571373e-02 -1.74577758e-02 -7.23097250e-02
   6.10665381e-02 -1.42580137e-01  4.39103432e-02  1.29523069e-01
  -7.93046057e-02  1.33999944e-01 -1.33179352e-01 -4.75276336e-02
  -1.35389389e-03  7.07133561e-02 -2.72042211e-02  4.35088798e-02
   5.23131602e-02  1.76919173e-04  1.44014686e-01 -7.70817623e-02
   5.62470518e-02 -1.32812366e-01  1.98342968e-02 -1.98827032e-02
  -1.39462560e-01 -2.70301364e-02 -1.40065970e-02 -1.93796247e-01
  -1.55943036e-01 -7.86486920e-03 -6.08608276e-02  9.49652568e-02
   7.70943761e-02 -7.31056258e-02 -1.46145038e-02 -2.25858614e-02
  -3.89920287e-02 -4.02163267e-02 -2.13498592e-01 -8.49834010e-02
  -2.49418127e-03 -9.46068093e-02  4.48168330e-02 -9.10371244e-02
  -6.10221848e-02  2.45178435e-02 -1.55547783e-01 -1.61645651e-01
   1.59270912e-02  7.27816066e-03 -1.42608918e-02 -4.11382578e-02
   3.62279676e-02 -1.00794598e-01  3.93307023e-02  1.57241955e-01
  -3.93924043e-02  2.71777948e-03 -5.54799139e-02  4.26030755e-02
  -3.90891656e-02  6.73087761e-02  1.45741135e-01 -1.15491755e-01
  -5.13094962e-02  1.02016196e-01  5.92509434e-02 -8.05644095e-02
   1.83853116e-02 -1.97177455e-01  2.92352736e-02 -6.80037811e-02
  -2.66941756e-01 -4.28625345e-02  1.54221023e-03  7.44766220e-02
  -2.40272917e-02  5.53147197e-02 -1.24043869e-02  1.03567213e-01]
 [-1.83414251e-01 -1.93752423e-02 -2.81043738e-01 -9.45951343e-02
  -5.76525331e-02  5.99727174e-03 -1.36978090e-01  1.82050824e-01
   8.68065059e-02  6.30516857e-02  4.88937981e-02 -2.21905988e-02
   1.43038198e-01 -7.56415650e-02  7.32679814e-02  1.08640432e-01
  -2.21544690e-02  3.89768207e-03  1.24617167e-01  3.07596102e-02
   4.87438366e-02  3.54033001e-02 -1.26251131e-01  3.09644014e-01
  -1.39770964e-02  5.34917042e-02 -5.62310852e-02 -4.75565493e-02
  -1.65711641e-01  5.14846630e-02  6.93537667e-02 -2.33199745e-01
   3.26451436e-02 -1.60275847e-02 -1.68986060e-02  5.95461428e-02
  -1.44660875e-01 -1.19346149e-01 -1.09885633e-02 -8.30087289e-02
  -1.20610885e-01 -8.39825049e-02 -8.85335729e-02 -5.94224222e-03
   6.89416826e-02 -1.12483539e-01 -8.57261755e-03 -3.64165530e-02
  -1.27801642e-01 -1.01883054e-01  1.37103394e-01 -3.24083753e-02
  -1.39335915e-01 -8.15963745e-02 -1.50367822e-02 -6.91857710e-02
   4.74145040e-02 -7.42876083e-02 -1.04729883e-01  8.69561546e-03
  -1.41475219e-02 -1.09308913e-01  2.65465993e-02  7.29770511e-02
   1.27472924e-02  3.24062742e-02  6.20323159e-02 -4.58564460e-02
   1.15410695e-02  6.87074810e-02  3.29746865e-02  4.58324067e-02
  -1.53847858e-01 -1.48512036e-01 -3.67764793e-02 -7.87661448e-02
  -3.13803069e-02  1.10957026e-02 -4.18288112e-02 -1.40793383e-01
   4.56033014e-02  1.85206663e-02  2.80448422e-02  4.11286168e-02
   3.76379490e-02 -2.30012372e-01  2.24574059e-01 -6.83445558e-02
   8.55793729e-02  1.20218508e-01 -1.20822944e-01 -6.70944676e-02
  -1.98931858e-01  6.20259196e-02 -1.53549597e-01 -2.68183917e-01
  -1.92683488e-01 -1.32824510e-01 -2.57052630e-01  7.33224303e-02
  -8.69543403e-02  6.62658885e-02  2.07777470e-02  1.68005586e-01
   8.11044301e-04  3.19160521e-02 -2.24286228e-01 -8.04612935e-02
   2.37698419e-04 -5.34354411e-02 -9.32230726e-02 -1.75447568e-01
   6.04777522e-02 -7.46541023e-02 -1.16522387e-02 -5.23587056e-02
  -6.60638735e-02 -1.42030850e-01 -1.13375112e-01  3.67987640e-02
   2.38050502e-02  8.46484229e-02 -3.92200164e-02 -9.12945047e-02
   4.16182764e-02 -1.46340886e-02 -1.78619042e-01  2.83684880e-02]
 [-2.31265165e-02 -5.07614128e-02  1.33232865e-03 -1.04730159e-01
  -9.88466591e-02 -2.01818332e-01 -1.78972960e-01 -5.94662130e-02
  -1.72587767e-01 -1.24675676e-01 -5.29816709e-02 -1.00491270e-01
  -1.25173271e-01  7.25611150e-02 -4.74994816e-02  5.10786846e-03
  -8.91713984e-03 -1.39501438e-01 -1.89286582e-02 -1.04121849e-01
  -3.49698626e-02 -5.01301549e-02 -1.08229354e-01  1.50846830e-03
  -4.37147282e-02 -6.92490041e-02 -1.92078259e-02  8.91160592e-02
  -4.63569239e-02 -1.72961414e-01  2.10369769e-02 -5.48530631e-02
  -1.69617832e-01  7.09789097e-02 -4.33819667e-02 -1.62542202e-02
  -1.12658679e-01  9.61123314e-03  6.49280548e-02 -1.23375088e-01
  -9.60585326e-02  8.37077126e-02 -9.35675427e-02 -1.12798005e-01
  -1.64792344e-01 -7.60915056e-02 -4.05052751e-02 -1.37186676e-01
  -1.15931012e-01 -1.71388499e-02 -2.08475422e-02  1.08870091e-02
   3.37476470e-02 -1.82535261e-01 -8.45991224e-02 -1.26665279e-01
   1.35367721e-01 -9.11404118e-02 -2.93017291e-02  4.26720195e-02
  -8.91582072e-02 -2.30025396e-01  1.22053707e-02 -2.75064223e-02
  -5.25504760e-02 -1.28118664e-01 -7.20749935e-03 -4.67815958e-02
  -9.42998827e-02 -1.49816722e-01 -8.19838606e-03 -5.09285480e-02
  -5.03489971e-02 -2.22129941e-01 -8.91554058e-02 -2.38115102e-01
  -1.46645382e-01 -4.39273156e-02 -6.24889880e-02  1.71403419e-02
   1.25365204e-03 -4.76716161e-02  4.04819325e-02 -1.13575980e-01
  -7.18401298e-02 -9.95835811e-02 -1.57102346e-01 -2.06096545e-01
   1.33973584e-02 -6.08170070e-02 -5.92296273e-02 -1.39326498e-01
   2.47547030e-02  1.56942993e-01 -2.12536648e-01 -1.67802483e-01
  -1.00524642e-01 -8.89703184e-02 -5.22510819e-02 -3.17727812e-02
  -1.87945679e-01 -3.98058072e-03  5.34466701e-03  7.42572770e-02
   5.44506032e-03 -6.07961696e-03 -7.07641244e-02 -5.27746417e-02
  -3.90473455e-02 -1.52286634e-01 -1.35276034e-01 -4.78918403e-02
  -7.79107213e-02  3.09877004e-02 -3.49749513e-02  5.18459789e-02
   5.65179400e-02 -8.39755014e-02 -1.60014942e-01 -2.05495134e-02
  -9.26151052e-02  1.03019690e-02 -4.10154201e-02 -1.00895301e-01
   6.25216365e-02 -2.67432090e-02 -1.08243234e-01 -2.07829084e-02]
 [ 3.54489335e-03 -1.98184885e-02  9.28933471e-02 -3.43526080e-02
  -2.50131264e-02  4.86680083e-02 -2.31096242e-02 -1.82649437e-02
  -1.82230964e-01  1.65062165e-03 -1.68325648e-01 -4.98969443e-02
  -1.66320816e-01  8.01383629e-02 -4.74171601e-02 -7.59502277e-02
  -4.27409559e-02 -1.21251978e-01  1.53239910e-02 -1.21099137e-01
   2.21597806e-01  4.40331437e-02 -2.01918781e-02 -1.14418432e-01
   6.42900914e-02 -2.74609551e-02 -1.84635520e-02 -5.01573049e-02
   9.71606001e-04 -1.34225473e-01 -3.38814527e-01  1.01238698e-01
   1.15880324e-02 -2.95212194e-02  2.69404612e-02 -7.65929893e-02
  -1.31476410e-02 -1.66559398e-01 -3.18363011e-02 -1.12150259e-01
   8.84470195e-02 -3.13124657e-02 -1.82278186e-01 -7.37845385e-03
  -2.29184069e-02 -3.80689017e-02 -2.91901585e-02 -3.32798027e-02
  -1.24892630e-01  1.49614841e-01 -1.54340547e-02  6.11994714e-02
  -2.39468422e-02 -6.49339100e-03  5.26076294e-02 -2.97657195e-02
  -7.97372088e-02 -1.55389644e-02  3.81211117e-02  2.53253113e-02
  -6.11505583e-02 -2.35257763e-02  6.23607682e-03 -1.02616502e-02
  -1.37946028e-02 -2.02998123e-03  6.90681264e-02  2.84540392e-02
  -7.88411126e-02 -3.92240621e-02  9.23491344e-02 -8.49094987e-02
  -8.60232189e-02 -5.25316074e-02 -7.78714046e-02  2.17904784e-02
   1.42317131e-01 -1.58260372e-02 -1.63496718e-01  8.09199363e-02
  -3.60355787e-02  2.31495835e-02  3.27953398e-02 -7.84681812e-02
  -7.19003379e-02 -8.50646496e-02 -1.64886340e-01 -1.01462856e-01
   5.86552359e-02 -6.71765432e-02 -1.28608122e-01  1.15049303e-01
   6.09693117e-02  2.10437067e-02 -2.30515212e-01 -7.74510205e-02
  -4.55277115e-02 -1.73579693e-01  2.71964334e-02 -1.11329146e-01
  -1.04101244e-02 -6.70655211e-03 -1.21895224e-01  4.43093814e-02
  -1.73241839e-01  4.30035032e-02  6.03529178e-02 -7.25786462e-02
  -9.49493945e-02 -8.39433819e-03  1.47373006e-01  8.46190527e-02
  -9.68667641e-02  3.11269686e-02 -1.04083776e-01 -2.91050058e-02
   3.02577689e-02 -1.42099597e-02  4.06918675e-02 -1.64008573e-01
  -1.80433199e-01 -5.14936559e-02  2.64679780e-03  2.10403744e-02
   1.24091461e-01 -2.37755589e-02  1.53454527e-01  6.64324611e-02]
 [-6.28402783e-03 -6.87844753e-02  2.31993366e-02 -4.14352790e-02
  -1.66128010e-01 -1.76084831e-01  2.52769329e-02 -4.20460030e-02
   5.32864369e-02 -1.18834041e-01  1.27466232e-01  1.16148576e-01
  -1.07559517e-01  1.09908789e-01  1.01848960e-01 -5.52708246e-02
  -2.22251154e-02  4.27356325e-02 -8.01490620e-02  5.28008863e-02
  -4.20727534e-03  2.15514421e-01 -2.22034216e-01 -2.24161427e-02
  -1.24924205e-01  1.75839160e-02  2.87603009e-02 -5.62169589e-03
   1.22472368e-01  2.45736629e-01 -6.57923594e-02  1.16611272e-01
  -8.05974659e-03  5.32080047e-03  1.29231498e-01  6.22917525e-02
   9.62408558e-02 -1.25423715e-01  4.37285751e-02  1.76781133e-01
  -3.67161334e-02 -2.09528543e-02  1.84260219e-01  1.26980230e-01
  -8.75093117e-02  4.60246876e-02 -1.78530440e-02  9.92148146e-02
   5.57032041e-02  1.64017990e-01 -1.06329769e-01  3.66060473e-02
  -8.52626041e-02  7.71014765e-02 -4.09392156e-02  1.75999865e-01
   1.07507616e-01  1.15375534e-01 -4.80708703e-02  6.19614758e-02
   2.79901147e-01 -1.74128547e-01 -6.46300837e-02  9.04742107e-02
  -2.21214741e-01 -1.03255175e-01  2.01893970e-01 -7.35690678e-03
  -3.45838144e-02 -1.99673861e-01 -1.15219332e-01  2.55451873e-02
  -1.26304641e-01  1.35633603e-01 -7.40491152e-02  1.47533819e-01
   1.07733935e-01 -1.11855097e-01  1.21290356e-01  6.77228868e-02
  -3.89880762e-02 -9.92521718e-02 -8.05000290e-02  2.61762086e-02
  -3.42410826e-03 -3.47246937e-02 -1.66426331e-01 -1.83309928e-01
   1.46222979e-01  1.43973557e-02 -2.63862815e-02 -3.88499983e-02
   1.08865179e-01  1.41676515e-01 -1.45059913e-01  5.48880994e-02
  -5.97562939e-02 -2.95091514e-02  1.55130830e-02  1.97970957e-01
   9.93953347e-02  2.27114439e-01 -1.25843436e-01  2.04341382e-01
  -7.89901614e-02  1.87031716e-01 -1.03886880e-01  7.23919347e-02
  -2.02444807e-01  3.78789147e-03  3.45129937e-01 -8.41300339e-02
  -3.20781544e-02 -1.48229137e-01  2.41860119e-03  4.11722660e-02
  -2.38176405e-01 -1.00210682e-01  1.60804465e-01  1.22339964e-01
  -7.43685365e-02  1.94972351e-01 -1.14205636e-01 -7.49739185e-02
   1.33706868e-01  3.51939537e-02  1.68701217e-01 -4.59710173e-02]
 [ 8.10492858e-02 -2.13111505e-01 -1.12971924e-01  1.04176491e-01
   1.18634403e-01 -1.69920363e-02  1.46311983e-01 -2.69724607e-01
   4.20531407e-02 -1.01103485e-01  9.66283530e-02 -3.37088108e-01
   5.71489595e-02 -5.20284213e-02 -1.84669700e-02  2.47192960e-02
   3.34647521e-02 -3.65068763e-02  4.88828942e-02 -7.15159103e-02
   2.50620008e-01 -5.05837984e-02 -9.39735025e-02 -2.66611129e-01
  -5.79853207e-02 -1.59622267e-01 -1.98294111e-02  1.65477335e-01
  -9.48267058e-02 -5.16970176e-04 -1.29669264e-01 -7.16141239e-02
   5.11208028e-02  9.67033803e-02 -2.85895616e-02  1.89884588e-01
  -3.15395445e-02  1.28574342e-01 -3.48582976e-02 -2.16349676e-01
  -3.23449135e-01 -4.19355230e-03  1.32373556e-01 -6.93248818e-03
   1.34027779e-01 -9.94495600e-02 -4.67646718e-02 -8.45056772e-02
  -4.57350835e-02  3.14525403e-02  2.70452965e-02 -2.96920519e-02
   8.75241086e-02  9.82984304e-02  7.68949231e-03 -4.12108563e-02
  -2.85999384e-03  4.35810909e-02 -1.81558076e-02  9.26575586e-02
   1.00022787e-02 -9.44698602e-03  2.15032443e-01  2.69009043e-02
  -1.80143312e-01  1.71847016e-01 -1.12658173e-01  3.29550020e-02
  -9.26566869e-02  1.44004151e-01  6.75981566e-02  5.66033944e-02
  -5.67814857e-02 -2.94167757e-01 -1.41716719e-01 -1.40238712e-02
  -4.85644005e-02  9.61048121e-04 -1.60583064e-01 -2.19722297e-02
  -1.01719745e-01  1.76505260e-02  3.42325777e-01  7.40481028e-03
  -4.43549603e-02  1.05464108e-01  1.57737155e-02  8.71008784e-02
  -1.44221470e-01 -2.05253392e-01 -9.24033001e-02 -1.92905143e-02
   6.05453476e-02  1.92534793e-02  9.41560864e-02 -1.24126717e-01
  -2.01116782e-02 -5.80091439e-02  1.29960641e-01 -5.95157454e-03
  -9.62895080e-02 -4.22873460e-02  1.82239756e-01 -2.07307294e-01
  -5.59635311e-02 -1.03730522e-01 -1.47551000e-01 -5.53273559e-02
   1.92755923e-01  2.88985014e-01  1.95126403e-02  2.24990413e-01
   5.35185635e-02  9.25686583e-02  1.87089443e-02 -9.79185402e-02
   3.31654400e-02 -8.35539624e-02 -1.11646252e-02  1.33832783e-01
   1.92242831e-01 -1.02539420e-01 -1.54343843e-01 -1.63729474e-01
   2.13178709e-01  1.84618011e-01 -2.89566666e-01  1.10709690e-01]
 [-2.42503323e-02  3.66458707e-02  1.33853137e-01 -1.12907372e-01
  -1.42135724e-01 -2.24783421e-02  2.95833331e-02 -3.54007706e-02
  -5.44805713e-02 -1.48008643e-02 -3.43966372e-02 -3.90667878e-02
  -8.58802795e-02  4.55558114e-02 -1.01442970e-01 -8.08354393e-02
   1.27557795e-02  5.56814447e-02  4.37646406e-03 -1.48742095e-01
   4.63862997e-03  3.57103832e-02 -1.24658242e-01 -2.77398750e-02
  -3.48038487e-02 -1.38153983e-02 -2.78674066e-02  8.46977308e-02
   6.03991852e-04 -2.27221072e-01  2.95929182e-02 -8.66049808e-03
  -3.10396664e-02 -7.31209442e-02  2.43766252e-02 -1.14134893e-01
  -8.10640156e-02  3.65047753e-02 -7.87653774e-02 -1.35446817e-01
  -1.41217783e-01 -6.35013133e-02 -1.13425009e-01 -1.17850356e-01
  -1.22347884e-01 -7.59237856e-02  2.26724166e-02  1.25102149e-02
  -1.21811591e-01  4.98868898e-02  3.34420167e-02  1.77072082e-02
   1.00349113e-01 -2.03597859e-01 -2.82449462e-02 -3.76193151e-02
  -1.38512840e-02 -3.24842744e-02 -1.73252709e-02 -6.00449666e-02
  -1.27905995e-01  1.66443884e-02  7.75533170e-02 -5.42256981e-02
  -1.65248141e-02 -6.45325407e-02  6.10743687e-02 -5.50441444e-03
   3.13481465e-02 -1.73748866e-01  1.35382665e-02 -2.91700549e-02
  -7.18024671e-02 -1.21790180e-02  2.93073454e-03 -9.43845734e-02
  -2.71559339e-02  2.55400632e-02 -2.74044033e-02  1.80796862e-01
   1.28009487e-02 -1.23148456e-01 -3.61029208e-02  4.66557555e-02
   4.79687843e-03 -6.95627332e-02 -8.66167322e-02 -4.11040187e-02
   1.30624138e-02  1.60329938e-02 -1.39172062e-01 -5.07101566e-02
  -8.42213780e-02  2.61942092e-02 -1.23115063e-01 -7.69355744e-02
  -4.63976972e-02  8.60061496e-02  7.20309019e-02  2.91781425e-02
   8.70116148e-03  2.35736631e-02 -1.10365264e-01  1.34217456e-01
  -9.64881852e-02  1.07999682e-01 -4.28429544e-02  6.33375645e-02
  -7.77925402e-02  3.39001045e-02  1.71874478e-01 -2.43255913e-01
  -1.15023674e-02  3.05733442e-01 -9.23037827e-02 -7.19055310e-02
  -3.43992673e-02 -2.73617476e-01  4.25027534e-02 -2.15950340e-01
  -2.01708764e-01  7.71267787e-02 -1.11832684e-02  6.82376772e-02
   6.74210414e-02  7.57006630e-02  6.65063784e-02  3.16516384e-02]
 [-1.34995684e-01  5.62120900e-02 -3.00403923e-01 -6.23201504e-02
  -1.17650099e-01 -1.03304267e-01 -2.04846174e-01  4.89411615e-02
   6.38406053e-02  8.52870867e-02 -7.00531378e-02  1.57198198e-02
   8.70062634e-02 -5.77916298e-03 -2.88843326e-02 -3.06372270e-02
  -6.05852120e-02  2.03305483e-02 -1.18229680e-01  6.46536704e-03
  -1.54368699e-01  1.25692800e-01 -9.93551835e-02  2.47348875e-01
  -1.18857391e-01 -3.55588719e-02 -4.55759140e-03  1.73914637e-02
  -1.02325017e-02 -8.25167745e-02  1.90343425e-01 -2.75768310e-01
   1.17549241e-01 -1.82676632e-02 -1.55603290e-01  1.13600731e-01
  -4.69678752e-02 -2.90921256e-02 -4.94562387e-02 -1.98719919e-01
  -6.76954463e-02 -5.28920330e-02 -1.59437824e-02 -8.40803534e-02
  -3.01113985e-02 -1.97531000e-01 -8.58421475e-02 -2.45728604e-02
  -2.13604420e-01 -1.40976965e-01  9.32064746e-03  5.37957996e-02
  -1.00676633e-01 -1.31578939e-02 -7.39884377e-02 -2.06676535e-02
   8.52310359e-02  2.36851405e-02  1.12030685e-01 -4.42099869e-02
   1.03503793e-01  4.70317490e-02 -1.91253424e-02  8.66751522e-02
  -8.77506658e-02  5.85335121e-02  1.17754743e-01 -7.13872463e-02
  -2.19998807e-02 -9.05372202e-02 -4.23641764e-02 -2.56882794e-02
  -1.32807568e-01 -7.85157904e-02 -8.20602402e-02 -1.32332176e-01
  -2.33375192e-01 -8.39021653e-02  1.23670310e-01 -8.63298494e-03
  -7.21737593e-02 -1.89704150e-02 -5.22546507e-02  1.41578643e-02
  -5.46398163e-02 -7.25466833e-02  6.28564134e-02 -2.97300853e-02
  -3.50820608e-02 -3.87990065e-02 -1.22121967e-01 -6.55628964e-02
  -2.10468292e-01 -8.69565904e-02  8.25027376e-03 -2.44061381e-01
  -2.06619054e-01 -8.03976059e-02 -9.66317654e-02 -6.01832047e-02
  -1.16711631e-01  5.04432954e-02  1.20669484e-01  1.06816906e-02
   1.24124158e-02 -9.58092064e-02 -9.21340063e-02 -6.55023903e-02
   5.43193296e-02 -4.19032872e-02 -1.33777201e-01  2.42532901e-02
   9.04291794e-02  2.28163833e-03 -3.34624574e-02 -7.28360862e-02
  -5.82297780e-02 -1.62652329e-01  3.18903401e-02  2.11291146e-02
   7.53417090e-02  7.55637065e-02  3.34797204e-02 -1.20076612e-02
   1.35740653e-01 -1.04177602e-01 -2.76856482e-01  8.04942921e-02]
 [ 1.09065641e-02 -3.93562354e-02  1.62631068e-02 -2.50934213e-01
  -1.77898258e-01 -1.45884126e-01 -1.88574195e-01 -1.11831903e-01
   3.43412198e-02 -1.44425035e-02  3.96667905e-02  4.26230431e-02
  -1.15283713e-01 -1.48529336e-01 -4.66330647e-02 -1.48507610e-01
   7.26520270e-02 -1.06591001e-01 -5.61172850e-02  5.54917520e-03
  -1.29553065e-01 -2.43973173e-02 -1.64429113e-01 -6.23776652e-02
  -1.14734016e-01  1.92721579e-02 -1.45017612e-03 -2.26122569e-02
  -8.07717144e-02 -5.59071563e-02 -2.98876222e-02 -1.00677393e-01
  -1.45327091e-01  4.72749136e-02 -7.16731623e-02  1.47923669e-02
  -1.21193312e-01  5.31671904e-02  1.01922408e-01 -7.11612031e-02
  -7.72912463e-04 -1.70374010e-02 -9.27045941e-02 -1.00933358e-01
   2.24977033e-03 -7.02135637e-02  8.09544399e-02  7.53923366e-03
  -2.51119554e-01 -5.90077229e-02 -1.80874597e-02  6.64433837e-03
  -3.19526792e-02 -7.92970415e-03  1.37928016e-02 -7.86310658e-02
  -3.90654318e-02 -7.09632859e-02 -1.59970876e-02 -9.81163308e-02
  -2.07172777e-03 -1.26229554e-01 -1.44883506e-02 -8.41862038e-02
   6.80335760e-02  6.04480412e-03  8.28655437e-02 -5.15356064e-02
  -1.34350747e-01 -1.38266236e-01 -1.24691330e-01  1.11292982e-02
  -4.74996166e-03 -2.92311549e-01 -1.44808948e-01 -1.34798780e-01
  -6.16079755e-02 -1.18284300e-01  8.65760166e-03  3.67141552e-02
   5.41502610e-02  2.93495767e-02 -5.77309988e-02 -1.16917148e-01
  -1.24817133e-01  6.53482974e-02 -1.04300410e-01 -6.93893284e-02
  -5.72628621e-03  5.19814976e-02 -1.26963139e-01 -4.37954850e-02
  -1.82068676e-01  1.00864675e-02 -1.99723467e-01 -1.18221030e-01
  -3.16803716e-02 -1.42468214e-01  5.48049361e-02 -1.01180799e-01
  -2.13673234e-01 -8.18175748e-02  1.50605366e-01  2.05166955e-02
   1.14189707e-01 -9.43916962e-02 -7.60306269e-02  2.18440616e-03
  -3.82677913e-02  9.02759805e-02 -1.10193513e-01 -6.07313178e-02
  -4.98839840e-02  9.69460234e-02 -8.65529776e-02 -6.99882880e-02
  -5.62666468e-02 -1.45900324e-01 -1.18730344e-01  3.69663388e-02
   9.80855972e-02 -1.33532524e-01 -6.50190841e-03 -1.21287946e-02
   3.27358507e-02  5.02826758e-02 -6.00109994e-02 -4.04078476e-02]
 [ 4.59924247e-03 -1.41804457e-01  9.95272249e-02 -2.60102563e-03
  -1.35529593e-01  2.00098548e-02  4.54786757e-04 -2.02473123e-02
  -2.00065330e-01 -6.86361268e-02 -2.57768799e-02  1.99765451e-02
  -1.58409581e-01  1.24240667e-01  1.65865186e-03 -7.99597986e-03
  -9.83753577e-02 -1.77763805e-01  1.19906388e-01 -7.87567571e-02
   4.10024188e-02  2.83517558e-02 -1.41983887e-03 -1.41560078e-01
  -4.63129953e-02 -9.44644511e-02  2.48656161e-02  7.23536778e-03
   3.79076996e-03 -1.44353181e-01 -1.71322405e-01  7.39236772e-02
   4.16486226e-02 -3.29497568e-02 -1.31360050e-02 -2.16897711e-01
   1.04364984e-01  3.75279970e-02 -3.75616439e-02 -1.53154656e-01
   1.04057621e-02  7.80412508e-03  1.63207706e-02  5.97930178e-02
   1.75945275e-02 -4.85152379e-02 -3.08312625e-02  7.75602609e-02
  -4.48175427e-03  9.32561159e-02 -3.37998718e-02  1.95732191e-01
   3.71521078e-02  6.89077377e-02 -5.97481877e-02 -8.73157308e-02
  -8.04659203e-02  4.06585783e-02 -5.21755265e-03 -4.42887843e-02
   1.13872796e-01 -3.97428833e-02 -4.71247174e-03 -8.24537873e-02
   6.27694950e-02 -4.75234985e-02  3.46347168e-02 -6.81624934e-02
  -4.60521020e-02 -3.74978641e-03  5.23870848e-02 -8.23638067e-02
  -6.47471547e-02 -7.38275796e-02  7.06919506e-02 -7.90790245e-02
   9.78723317e-02 -5.32712378e-02 -2.81011704e-02  3.71905155e-02
  -4.59629856e-02  8.70846137e-02  1.09364195e-02 -8.46253932e-02
   3.99514437e-02  9.56492126e-03 -1.24199025e-01 -8.08065683e-02
  -3.73010673e-02 -8.09920579e-02 -7.82432556e-02  1.93273157e-01
   2.31235940e-02 -1.65910795e-02 -3.32765728e-02 -6.94241375e-02
  -3.08502726e-02 -7.89382532e-02  2.91987117e-02 -2.05227926e-01
  -9.05460678e-03 -4.81664240e-02  1.52528763e-01  1.35391420e-02
  -1.58631980e-01 -3.58659104e-02  3.26057784e-02 -9.32058245e-02
  -8.09910893e-02  9.93143842e-02  1.71522185e-01  6.32767156e-02
  -1.30759612e-01  6.48288280e-02 -3.04394681e-02 -1.00147985e-01
  -9.77377873e-03 -2.59406529e-02  5.46959564e-02 -2.77550161e-01
  -1.17548004e-01 -4.76130843e-02 -9.57285091e-02 -1.13095641e-01
   1.43719196e-01 -7.56420121e-02  4.69423942e-02 -1.00666486e-01]
 [-2.46178195e-01 -4.89118211e-02 -8.35857317e-02  2.85689652e-01
  -3.91808636e-02 -1.75314322e-01  1.02904633e-01 -2.63502419e-01
   4.25466746e-02  2.58298330e-02  2.70017702e-02 -8.28967094e-02
  -1.29550129e-01 -6.01497665e-02  5.98407649e-02  1.20659061e-01
  -4.55428511e-02 -7.50140622e-02  5.82228005e-02  2.85746995e-02
   8.60091299e-02  3.03257518e-02 -5.47700822e-02 -9.66538414e-02
  -3.96574318e-01  1.62274122e-01  3.75577286e-02  1.57660723e-01
  -8.75497833e-02 -5.40367663e-02 -6.14672154e-02  1.24194890e-01
   3.06208376e-02 -1.76266640e-01 -5.97088076e-02 -9.94492881e-03
  -2.22640019e-02  1.76109448e-02  4.67064083e-02  7.22425431e-02
  -1.74141213e-01  7.06473514e-02  2.89286733e-01 -8.21463019e-03
  -1.41211525e-01  3.50882076e-02 -1.55989408e-01  7.13227838e-02
   2.16050446e-01  6.16655611e-02  1.64606601e-01  2.98438314e-02
   3.89185585e-02  1.42418370e-01 -2.76411120e-02  9.73163359e-03
   6.71989024e-02 -4.58368585e-02 -2.43021026e-02 -5.32789566e-02
  -7.19776377e-02 -1.98357806e-01  1.10478185e-01 -1.59550816e-01
   8.20927545e-02 -3.84881385e-02  1.87260941e-01  3.25537771e-02
   7.96438828e-02 -3.16953272e-01 -9.46583897e-02 -1.47063076e-03
   2.69634258e-02  1.26116248e-02 -6.13534730e-03 -5.98084666e-02
   1.68996036e-01 -1.24683745e-01  1.30330492e-02  7.18207806e-02
   2.49481779e-02 -1.40237845e-02  1.11537404e-01 -5.61505444e-02
  -5.90145737e-02  1.79521218e-01 -6.30646537e-04 -6.10882156e-02
   7.52412304e-02  9.18898955e-02 -1.17302574e-01 -7.16270506e-02
   8.99133552e-03 -1.27956778e-01 -8.92155170e-02 -1.37542069e-01
   1.25675410e-01 -3.36527526e-02  4.17956710e-02  7.41731972e-02
  -1.44391224e-01 -1.32992640e-01  6.57923520e-02  1.01540290e-01
  -1.48116082e-01  3.70847546e-02  6.27906770e-02  8.28567967e-02
  -3.92288044e-02  1.66450754e-01  1.78710222e-02  1.08131632e-01
   1.27839103e-01  3.99637111e-02  6.30023777e-02  9.64759961e-02
  -1.02501214e-01 -1.40078038e-01  6.70963973e-02  1.68207914e-01
   1.26212705e-02  2.86348034e-02  4.06203680e-02 -1.99949995e-01
   9.57929492e-02  1.11609086e-01  1.23181425e-01 -4.16803099e-02]
 [-2.37335578e-01  2.77649537e-02 -7.61303958e-03  4.35497835e-02
   2.43898407e-02  1.08537883e-01 -2.29362734e-02 -1.34468451e-01
   2.05721498e-01 -5.27886786e-02 -4.98427115e-02  8.92873015e-03
   1.40986681e-01  3.07191033e-02  9.44779366e-02  1.45856634e-01
  -1.11111626e-01 -4.20731306e-02 -1.80910140e-01  1.15214944e-01
   1.88589603e-01  2.18126178e-01 -2.16845199e-01 -1.26838177e-01
  -1.06424376e-01  8.27564299e-02  1.16137743e-01  3.99030745e-03
   1.34448826e-01 -1.32025152e-01 -1.05821565e-02 -1.93742529e-01
  -5.72720692e-02  3.03714961e-01  1.05276905e-01  1.68571949e-01
   4.19675782e-02 -8.05220157e-02  4.58873995e-03  3.89599539e-02
  -2.52545848e-02 -1.36970028e-01  1.58522099e-01  1.58518806e-01
   1.41050383e-01  1.68785840e-01 -2.28293780e-02  2.34315977e-01
  -2.46114880e-02 -3.11829355e-02 -4.78850342e-02  7.97760114e-02
  -3.91081721e-02  2.87172288e-01  2.55168118e-02  1.08823687e-01
  -8.58905464e-02 -4.06599641e-02  1.02334008e-01 -2.90164202e-02
   2.99639165e-01  1.61426783e-01  1.52328700e-01  2.84826964e-01
  -1.12187073e-01  5.43647893e-02 -9.07100216e-02 -4.43474613e-02
  -2.06899159e-02  2.14708507e-01  4.38599735e-02  1.47547871e-01
   3.51069123e-02  6.60982355e-02 -1.19531117e-01  6.48875833e-02
  -1.84567869e-01  7.86377862e-02 -1.70506060e-01  1.42900303e-01
   9.68118533e-02 -7.92884752e-02 -1.32485136e-01 -1.57050863e-02
   2.97761173e-03  1.16846450e-01  2.85591036e-02  1.38278782e-01
  -1.30764589e-01 -1.40556842e-01  1.02012888e-01  7.19224587e-02
   1.63357537e-02 -1.56795412e-01 -2.56354585e-02  7.15786070e-02
   1.08756766e-01 -1.15033209e-01  1.15173526e-01  8.04916024e-02
   2.44876575e-02  4.66062576e-02 -1.70159750e-02 -9.42448154e-02
  -3.66105372e-03  1.28779009e-01  8.54458883e-02  5.42359203e-02
  -2.34749839e-02 -3.81636340e-03  9.46455076e-03  2.45273873e-01
   1.18273087e-01  1.54977310e-02  3.49826694e-01 -2.45751217e-01
  -1.41720533e-01 -2.68995645e-03  1.47300392e-01  6.65659308e-02
   1.45645171e-01 -3.37987468e-02 -7.72388056e-02 -2.17851456e-02
   2.78836071e-01  1.37021750e-01 -1.30807459e-01  6.29706681e-02]
 [-3.65325920e-02 -2.80446541e-02  2.04722971e-01 -1.17935799e-01
  -1.37751862e-01 -1.48483589e-01  2.89198607e-02 -7.39052594e-02
  -4.64085350e-03  1.35850497e-02  6.31515775e-03  3.90444584e-02
  -2.87762105e-01 -6.98726401e-02 -1.43154830e-01 -1.10046886e-01
   5.22507504e-02  1.40870772e-02  6.54809773e-02 -6.23004287e-02
  -9.00867581e-03 -5.95094301e-02 -7.98496604e-02  2.56492235e-02
  -3.75246555e-02 -2.89095305e-02 -5.31236874e-05  8.49724188e-02
  -1.00223333e-01 -2.08053783e-01 -1.43751845e-01 -1.17876895e-01
   7.48239756e-02 -4.84571941e-02 -5.95520474e-02 -1.08473152e-01
  -2.30400398e-01  6.05302304e-02 -4.58986908e-02 -4.41808440e-02
  -1.98461115e-02 -4.06580279e-03 -1.05816245e-01 -5.56984395e-02
  -5.90601899e-02 -8.16892087e-03 -2.13290863e-02  1.79012660e-02
   3.39129753e-02 -1.18686959e-01 -1.72989313e-02  1.04746930e-02
   7.48016685e-02 -2.92091034e-02  1.52003840e-02 -2.28909180e-02
  -2.11230554e-02  9.78078768e-02 -1.74108967e-02 -1.91295110e-02
  -1.96189117e-02  1.94826089e-02  1.40579343e-01 -4.07365803e-03
  -9.55086015e-03 -8.38490725e-02  1.73138417e-02  1.84867941e-02
   7.03835860e-02  2.57161283e-03  7.49859214e-02 -7.54345628e-03
  -1.30463950e-03 -4.26403098e-02 -7.50557333e-02  2.58393418e-02
  -1.10181361e-01  5.99353984e-02 -4.72359397e-02  1.64500192e-01
   4.33859117e-02 -3.38252857e-02 -4.59191091e-02 -5.98830804e-02
  -1.61611997e-02 -6.68090209e-02  2.00334173e-02 -1.41706154e-01
   1.30273402e-01 -5.79066724e-02 -1.17971353e-01 -9.85041186e-02
  -7.82044157e-02  1.21430987e-02 -2.26704195e-01 -1.38996124e-01
  -7.16908053e-02  4.28591333e-02 -2.99684261e-03 -5.76704741e-02
  -6.68371320e-02 -3.95786539e-02  1.35018840e-01  5.50040975e-02
   5.45208342e-02 -3.02295554e-02  5.01393490e-02 -1.25038251e-01
   6.68758294e-03  7.57604018e-02  4.69784811e-02 -1.42796591e-01
   6.57209605e-02  3.35120827e-01 -1.31743029e-02 -1.12825967e-01
   2.80160531e-02 -2.40010753e-01  1.48799136e-01 -2.41248421e-02
  -3.00155114e-03  1.08656518e-01 -1.29097011e-02  1.17225878e-01
   2.17382014e-01  3.31432791e-03 -4.99433987e-02  7.21216798e-02]
 [-8.34199861e-02 -1.65839642e-01 -9.77120027e-02 -5.87923452e-02
  -2.00407922e-01  2.46132240e-02  2.11712997e-02 -1.48142725e-02
  -7.55139580e-03  2.41435487e-02  5.18462807e-02 -9.91790518e-02
   3.99861783e-02  3.22318226e-02  5.49818091e-02 -1.04268394e-01
  -1.53685570e-01 -9.47757363e-02  1.02215800e-02  7.72698000e-02
  -5.50061911e-02 -1.92545191e-03 -2.90373396e-02  1.07529886e-01
  -3.66700105e-02  1.16422057e-01  7.76896207e-03 -1.23819187e-01
  -1.86398923e-02 -9.47219729e-02 -4.28355951e-03  9.91667435e-03
   7.67309368e-02 -5.73043823e-02 -4.84057814e-02 -1.50824152e-02
  -2.30895597e-02 -1.47141829e-01 -3.83275896e-02 -1.41517073e-01
   3.38045210e-02 -2.94323433e-02 -7.35400021e-02 -7.17260242e-02
   1.10446736e-01 -1.70943215e-01  1.54114645e-02  9.19470116e-02
  -1.60861239e-01  3.66135128e-02 -3.16158459e-02  2.99820632e-01
  -1.26444280e-01 -3.64293046e-02  6.16899356e-02 -1.80680081e-01
   1.08489402e-01  2.20757406e-02  2.74460241e-02 -1.79962404e-02
   1.68658614e-01  1.59651954e-02 -9.18464586e-02 -3.95366549e-02
   5.80426604e-02  7.46437162e-02  1.96346194e-02 -3.80315483e-02
   3.13576162e-02 -5.63704148e-02 -2.52195746e-02 -8.66690576e-02
  -1.78968478e-02  2.68222671e-02 -7.69275874e-02 -2.00691193e-01
  -6.47428855e-02 -1.52542293e-01  9.34622344e-03  8.36050957e-02
  -6.82877377e-02  1.07284516e-01 -4.56446148e-02 -4.37256806e-02
  -1.34095535e-01 -1.67641148e-01  4.74028438e-02  8.99358019e-02
  -4.36716946e-03 -8.44031870e-02 -5.99536151e-02 -5.84068596e-02
   2.61711944e-02 -1.53784022e-01 -1.49850056e-01 -1.92089770e-02
  -1.15643121e-01 -2.02252746e-01  8.26520249e-02 -2.95883399e-02
  -9.21832398e-02 -1.36600256e-01  4.59604412e-02 -1.81472804e-02
   1.16608270e-01 -2.91532204e-02 -8.07555243e-02 -4.51635085e-02
  -7.73648322e-02  3.45605984e-02 -5.66195324e-02 -8.37859809e-02
   1.02873538e-02 -5.68917915e-02  1.38306826e-01 -1.39468044e-01
   6.39467034e-03 -1.23053819e-01  1.44214720e-01  1.30777555e-02
  -1.16853893e-01 -6.50554821e-02 -5.04299775e-02 -1.31723657e-01
   2.32728198e-01 -2.35070251e-02 -2.57045180e-01  4.80653346e-02]
 [ 7.87990261e-03  8.45227093e-02  8.19704495e-03 -2.45416448e-01
  -1.67571217e-01 -5.17085269e-02 -2.08217442e-01 -6.21606745e-02
  -6.93862885e-02 -7.21158087e-03 -6.54022694e-02 -8.99447501e-02
  -1.17771350e-01 -6.76606968e-02 -5.53052500e-03 -1.06344245e-01
  -2.72371434e-02  1.63062308e-02 -1.60311863e-01 -2.95386631e-02
   6.03044638e-03 -4.23156358e-02 -2.47415870e-01  2.87392959e-02
  -4.26071845e-02  2.07374860e-02  4.60888818e-02  7.25748017e-02
  -1.00334264e-01 -1.67236090e-01 -1.56403445e-02 -1.00179330e-01
  -1.92325026e-01  5.67216724e-02  2.61662900e-02  8.43340531e-02
  -3.48184668e-02  9.30356153e-04 -1.09077133e-02 -1.05109423e-01
  -4.79362793e-02  4.96918075e-02 -3.47007699e-02 -1.86794668e-01
  -5.38229533e-02 -2.18050741e-02 -3.63016538e-02 -1.34683484e-02
  -1.80478603e-01 -7.16482326e-02 -8.07473809e-02 -2.36138562e-03
  -1.14625648e-01 -4.67404164e-02  2.32750550e-02 -9.06099081e-02
  -7.05794618e-02 -9.67131853e-02 -1.28192259e-02 -1.34821177e-01
   6.92126974e-02 -1.54030398e-01 -4.27052751e-02 -3.21447179e-02
  -2.23217122e-02 -1.96789708e-02 -1.81291983e-01 -8.24927241e-02
  -9.52071026e-02  2.70760171e-02  9.66684893e-02  9.67402086e-02
  -7.56394267e-02 -1.12993442e-01 -1.59325004e-01 -8.82099345e-02
  -2.27260351e-01 -7.85123333e-02 -5.14680631e-02 -5.60925677e-02
  -4.71282937e-02 -1.86779901e-01 -1.05264537e-01 -7.21631050e-02
  -9.42083299e-02  3.18526141e-02 -3.97155993e-02 -7.59584233e-02
  -5.54311723e-02  7.66494777e-04 -2.28748787e-02 -2.83265729e-02
  -7.51762241e-02 -1.86918490e-02 -1.24091253e-01 -1.08125150e-01
  -7.02027828e-02 -1.55403400e-02  2.63552256e-02 -7.83479214e-02
  -1.04870766e-01 -1.83339790e-02 -8.11965093e-02 -1.27986912e-02
   1.39897503e-02 -3.76783833e-02 -4.42327298e-02 -5.45400307e-02
  -6.13336489e-02 -1.10808633e-01 -2.75168959e-02  6.39617145e-02
  -6.22747168e-02  7.23530829e-04 -8.82385671e-02 -6.71937838e-02
   1.49105079e-02 -1.31750051e-02 -5.46260178e-02  2.16957163e-02
  -2.06912644e-02 -4.55227755e-02 -9.26702917e-02  4.12324816e-02
  -2.39380542e-03 -1.49477899e-01 -8.06932338e-03 -2.54008379e-02]
 [ 7.89151117e-02 -8.52487795e-03  1.02101803e-01 -6.32796511e-02
  -1.98321387e-01 -1.07207887e-01  1.80210695e-02 -1.99609553e-03
  -6.18887544e-02  1.25377188e-02  1.38050606e-02  1.14705972e-01
  -1.72664523e-01  1.07451968e-01 -2.99936831e-02  6.47649094e-02
  -8.02386180e-02 -2.32115984e-01 -4.32158895e-02  8.62381160e-02
  -1.19778542e-02  9.79713351e-02 -2.03787144e-02 -3.78213152e-02
  -7.89313577e-03 -8.85260478e-03 -2.74075698e-02 -5.71294315e-03
   1.70637039e-04 -1.84557199e-01 -9.81644765e-02 -7.58653358e-02
   7.42407665e-02 -7.00292140e-02 -2.38658469e-02 -1.08444043e-01
  -1.41637653e-01 -2.67686732e-02  5.65576069e-02 -1.39938481e-02
  -1.85937490e-02 -3.25820819e-02  1.72989182e-02  2.16525067e-02
   1.53351724e-02 -5.91959246e-02  6.26568776e-03 -5.32352030e-02
  -8.57929233e-03 -7.69764930e-02 -2.02240329e-02  1.09091252e-01
   1.66426145e-03  1.46221623e-01 -2.01695617e-02  2.43972838e-02
   8.82821623e-03 -1.46981860e-02  4.98178005e-02 -5.12798829e-03
  -8.97804275e-02 -1.44389346e-01  8.81656334e-02  1.20523926e-02
  -7.47699514e-02 -2.08966002e-01  1.00881904e-01  4.33830656e-02
  -3.80878188e-02  3.36360931e-02 -4.71243411e-02 -7.65292048e-02
   6.50731567e-03 -5.16441725e-02  9.07984748e-03  8.05542222e-04
   4.72024307e-02  2.80936267e-02 -8.29548687e-02  3.79408747e-02
   6.44975854e-03  2.20122840e-02  7.29442313e-02 -8.09374824e-02
   3.11933812e-02 -2.69163456e-02 -1.35255173e-01 -6.72221854e-02
   4.31131832e-02  1.75968781e-02 -4.55983430e-02  1.12605155e-01
   3.23133692e-02 -3.23972329e-02 -2.20000856e-02  4.27850224e-02
   3.00748311e-02 -5.44365533e-02  3.74176241e-02 -5.31581081e-02
  -2.29413986e-01 -4.20651399e-02  5.10153361e-02 -6.09095804e-02
  -3.37221324e-02  9.08553004e-02  2.40760520e-02 -1.55664429e-01
   4.11005877e-02 -7.34739378e-02  8.39319453e-02 -7.10138679e-02
  -1.49333104e-01  1.61392897e-01 -8.05339217e-02 -5.54942451e-02
  -2.29585599e-02  5.86326197e-02 -5.79007203e-03 -7.46202692e-02
  -1.31631196e-01 -6.23895489e-02 -1.05139673e-01 -1.91332493e-02
   6.93031847e-02 -4.84269783e-02 -7.23046660e-02  5.62783815e-02]
 [-8.14636797e-02 -1.51378214e-01  1.86859723e-02  7.12765604e-02
  -1.45515874e-01  1.85463461e-03 -2.56466597e-01 -2.81757787e-02
   1.47562057e-01  1.50894850e-01 -4.67382781e-02  1.28407806e-01
  -7.49193355e-02  1.65787730e-02 -1.22204116e-02  2.25185215e-01
  -3.82413745e-01 -5.73896505e-02  5.49932793e-02  6.19634753e-03
   1.81817189e-01 -2.32020058e-02 -1.28575459e-01 -1.35763511e-01
  -2.90789083e-03  2.65427697e-02  8.60637724e-02 -2.69911066e-03
  -1.39124133e-02 -5.46920486e-02 -3.85551862e-02  3.29367131e-01
   1.51267722e-01  1.77820232e-02 -5.19095175e-02  1.30391404e-01
  -1.01391718e-01  4.01910162e-03 -1.97595239e-01 -5.91474883e-02
  -8.04248899e-02 -2.35576257e-01  9.67710838e-02 -8.65706801e-02
  -2.05763970e-02 -2.68632770e-01 -8.51316527e-02  3.65776904e-02
   1.13387503e-01 -4.57575284e-02  9.02756825e-02  2.63755232e-01
   1.33074477e-01  2.83611596e-01  3.25655304e-02  5.21097630e-02
  -2.24320382e-01 -2.25482192e-02 -4.62330841e-02 -1.92944273e-01
   5.64649925e-02 -1.33817285e-01  1.83237001e-01 -4.26124036e-02
  -2.49465555e-01  5.81285805e-02 -4.71041258e-03  3.88389938e-02
  -8.50474555e-03  1.33930534e-01 -1.08252928e-01  4.78827655e-02
   5.93452379e-02 -3.82680409e-02  1.33888721e-01 -8.98734704e-02
   1.15500309e-01 -8.07192028e-02 -1.15094014e-01  1.42299816e-01
   1.23620041e-01  1.15786478e-01 -7.36905634e-02  1.72195546e-02
  -2.00950459e-01  2.23339558e-01 -1.20426081e-01 -2.73382496e-02
  -3.12170796e-02  1.19673699e-01 -8.25136453e-02 -3.81500274e-02
  -1.62981957e-01 -7.13159665e-02 -2.14192763e-01 -1.74151987e-01
  -4.81781587e-02  7.07635935e-03  7.07840323e-02 -3.52159962e-02
   4.62667532e-02  1.14740610e-01 -4.01699264e-03 -1.24477126e-01
  -1.25992909e-01  2.72175344e-03 -1.16127774e-01  1.97439529e-02
   1.33611247e-01  1.85423736e-02 -9.33263972e-02  6.90442249e-02
  -2.83297468e-02  3.20208482e-02  2.35063270e-01 -1.73817605e-01
  -6.98403791e-02 -1.94953233e-01  7.12623149e-02  4.80791042e-03
   3.37667987e-02 -1.26768306e-01 -3.77073400e-02 -1.13619283e-01
   1.24273971e-01  2.10620910e-02 -4.34517004e-02  8.94814059e-02]
 [-4.48271818e-02 -1.84651334e-02 -1.25468254e-01 -2.20486019e-02
  -7.42454752e-02  6.03117533e-02  9.59625095e-02 -1.25376424e-02
   1.67532024e-04 -8.99846479e-02 -5.99979721e-02  1.56437717e-02
   1.81432083e-01  5.20425383e-03  5.79365790e-02  7.36798570e-02
  -7.88289607e-02 -2.00791713e-02  1.16313118e-02 -4.23051640e-02
   2.08970115e-01  1.55655770e-02  4.12114933e-02 -1.45739749e-01
  -4.54363227e-03 -3.63187417e-02  5.05769588e-02 -8.87818635e-03
   1.07314102e-01 -2.45909169e-02 -5.04435450e-02  7.97150806e-02
   1.22384056e-01  9.91646051e-02  1.23146161e-01  8.56122077e-02
   1.21990718e-01 -5.69099784e-02  1.46829098e-01 -8.58327374e-03
   7.24328086e-02  6.49903044e-02 -9.57973115e-03  3.58013064e-01
   3.93625088e-02  1.16702795e-01 -9.99071971e-02  1.90950066e-01
